2382 100
you 0.13939942 0.38949624 0.8103265 -2.337672 -0.032519866 -0.19894218 0.19045529 0.14203255 0.12071196 -0.12647398 1.0777727 0.078173555 0.3230108 -0.03966554 -0.04139381 -0.05533242 0.050499216 0.20289916 0.11405991 -0.12380654 -1.1160158 0.39417574 -1.2689704 -0.033148505 -0.1663423 -1.291384 -0.026647817 -0.1721999 -0.03953466 -0.25355682 -0.12383365 0.34356204 0.5908144 -0.046788365 -0.16519111 0.39630577 0.004081722 -0.08484416 0.089663975 0.77987593 0.042705737 0.044680323 -3.4692903 0.009637115 0.28651252 -0.5013385 0.15300873 0.2674434 0.16924235 0.010505242 -2.0798225 -1.0679963 2.8340127 0.04751667 -0.27486926 -0.0036721115 0.1889778 0.027133409 0.35541385 0.11192216 0.08775826 0.19955596 0.021836925 -2.7644324 -0.52075833 -0.45297116 0.22341688 -0.039960552 0.19471195 0.059560817 -0.4474642 -0.13295028 -0.80763584 -0.32241327 -0.13013424 0.13532375 0.08301799 0.013369426 0.49698952 -0.08488956 -0.035582855 0.041855294 -1.6530304 -0.24719374 0.42781532 -0.8935214 0.045554146 -0.46858877 0.35516235 0.3795626 -0.6442533 -0.33350673 -0.054635946 -0.053717237 0.09219457 0.23019217 0.021991173 -0.31361526 -0.26938286 0.20294496
i 0.5033982 -0.028662872 0.35927942 -0.065982066 -0.11249845 -0.5433864 1.0958914 0.32821038 -0.03128214 0.16568063 1.0186503 -0.045526102 -0.14482917 0.14052258 1.3864958 0.051527716 -0.030523354 1.2007143 0.096360505 -0.16521807 0.22803606 0.2503203 -2.1481352 0.26967078 -0.14338732 0.21564941 0.11018331 -0.077756986 0.6482761 -0.67934924 -0.20743287 -0.29653642 0.19437042 -0.15937683 0.12175218 -0.27643216 -0.2149849 -0.8019287 -0.052803658 -0.3332159 -0.19219291 0.00757583 -0.35510266 2.8164215 0.20106554 0.22176303 0.31244755 0.32497287 0.38436064 -0.34150562 -0.07420173 -0.8342201 0.022392496 1.1669173 -0.17356497 -0.89746934 -0.033088177 -0.070044935 0.050514635 0.202718 -0.26167297 0.07704485 0.21380438 -1.3193947 -0.03961538 -0.40731847 0.13799785 -2.4249635 0.5149252 0.09478822 -0.10600399 -0.36708403 0.4727619 0.12362402 -0.45389953 -0.71587944 0.1674062 0.20245802 -0.13218234 -0.56413376 0.021193633 0.38915944 0.11142084 4.089066 -0.035317708 0.27675584 -0.14882034 -0.96793014 0.46855336 0.062061384 0.019332897 -0.0016594323 -0.2604199 -0.20482239 -1.4687093 -0.01711568 -1.4050058 -1.5622956 -0.37553105 0.7297288
to -0.016968044 0.29217365 0.72387457 0.2963931 -0.009245357 -0.42852846 -0.3129964 0.06647916 0.2431623 0.028022533 0.83570886 -0.25740296 0.018504178 0.2508531 -0.1294126 0.0027584755 0.012053366 0.09491599 0.22883819 -0.21942589 0.56113076 -5.0240574 -0.9807838 1.1306542 0.090262614 0.047939148 0.08220834 -0.15469551 -0.123967096 -0.23948549 -0.13647342 0.088032685 -0.11355817 0.0074266144 0.072135955 -0.017347038 -0.11983955 -0.08898657 0.20900574 -0.061625063 0.040279303 0.7553773 0.49501657 0.5933342 1.2388582 3.1011083 0.07142184 -1.1460136 -0.04390421 0.35408273 0.019523498 -0.49522802 0.3576789 0.17742233 -0.13642587 -0.24778628 0.17533419 -0.035861883 0.29598293 -2.21669 2.7275777 -0.822062 0.043287095 0.23976989 -0.33805487 0.0044101705 -0.065128475 0.13052851 1.1834182 0.04870105 -0.0013185327 0.86331224 0.067181535 0.046728723 0.056630556 0.21948545 -0.22856928 0.13658857 0.18456846 -0.5885914 -0.11662883 0.13299952 0.17838563 -0.31804425 -0.22667798 -3.6596568 0.084362775 -0.44201383 0.2276415 0.17307228 -0.001156387 -0.12796937 0.25721812 -0.18664195 0.10663636 0.025488323 0.2762205 -0.37106836 -0.20619026 0.37905136
the -1.6057938 0.30701256 -1.8199133 -0.027862692 0.28707856 1.7407103 3.868516 -0.100382745 0.12993164 -0.23204933 0.6896181 -0.16932818 -0.02772915 -0.08054406 0.15049845 0.2996526 -0.16045706 -0.12836975 0.20439361 -0.30753163 -0.053681325 0.055578284 -0.32346445 0.7445515 -0.020225221 -0.05534036 0.074124806 0.1435745 0.34782746 -0.17417532 -0.13255821 0.6995827 -0.25875756 0.8287011 0.1960652 1.8479736 -0.23183563 -0.17391315 0.17696472 -0.11497376 2.166689 1.6880467 0.07245075 0.035661496 -0.16281496 -0.07678109 1.065797 -0.6949375 -0.019761238 -0.04990045 -0.035128094 0.95409554 -0.07343505 0.2099989 -0.17869493 -0.10891303 0.44086784 -0.44515693 -3.8672063 0.17300439 0.108674124 0.13154702 0.08622477 -0.015533034 -4.2430644 0.21082492 -0.11246895 0.12170941 1.823208 0.08417236 -3.1622248 0.31345195 0.2603212 -0.43773064 -0.092352696 -0.0021231403 0.2951018 0.6510519 -0.0056884224 -0.56653893 -0.20361434 -0.0748388 0.10262516 -0.016218612 -0.25581902 -0.16410372 0.21778245 -0.960279 0.1547035 0.12798081 0.18410829 -0.18919247 -0.15693969 0.12226581 0.10327508 0.4401549 0.023514537 -0.64342034 0.053619575 0.20095414
a 0.17065676 -0.1876133 0.20365867 -0.38651714 -0.11263049 -0.20932513 4.501763 0.19431096 0.019918848 0.2652106 0.96126825 -0.03396134 -0.29305425 0.2828567 -0.038965587 -1.9411229 1.773533 -0.22044443 0.29022634 -0.078313336 -0.004566183 0.17515793 0.16551165 -0.20301919 0.09896095 -0.31332055 0.39359584 0.0677011 -0.029076247 0.008151497 0.35428944 -0.49081773 0.049938567 -0.0121525405 -1.1962612 -0.6069677 0.38153338 -0.14264685 -0.15747397 -0.11266866 1.6526288 0.0707651 -0.04608954 -0.0240012 -0.12809663 0.040654752 -0.16268262 -2.5547547 0.07506433 1.7751659 -0.052568257 -0.5473108 0.040712662 1.7882764 0.5065287 0.13836864 0.074413404 4.0739417 0.38899833 0.12990896 0.23010023 -0.032794267 -0.08164499 -0.25528795 0.50724673 -0.06880587 -0.099300854 0.2508765 2.4292705 0.17277455 -1.4751709 -0.049206585 0.36640018 0.14609803 2.7273629 0.044818353 -0.50418675 -0.120199926 0.42950577 0.18658851 0.07931387 0.029678484 -0.13000292 0.08516723 0.047723003 -0.12479454 -0.34051672 1.7599407 0.10690986 -0.22214238 -0.14153256 -0.10198194 2.90299 0.19642673 0.3536029 0.5067748 0.22355759 -0.2969366 -0.08846551 0.10350969
and 0.34241915 -0.5578752 0.27404508 0.26407233 0.7935186 -0.044295516 1.2861315 -0.625473 -0.07763235 -0.15646426 -0.48103285 -3.0984733 0.16006593 -0.3133615 0.26760763 0.23989666 -0.016353488 -0.13314734 0.5041097 -0.12380562 0.26962775 -0.1628461 -0.70674807 1.3437004 0.24338582 -0.14852466 0.24906918 -0.28835818 -0.2809894 -0.97239095 0.046080157 -0.3705855 1.257418 -0.24589428 0.14469332 -0.2326339 -0.12809381 0.3326229 0.089615785 -0.24860004 0.53994864 -0.29368535 -0.08547453 1.2304595 1.0825053 -0.14905554 -0.36312842 0.9927597 -2.52427 -0.03817453 0.27463537 -0.17619209 0.19684818 -0.17984492 -0.24223255 0.26078054 -1.2215921 -0.21728961 -0.3797002 -0.3017128 1.8676462 0.16560334 -0.03751129 0.00028620078 -0.90385073 -0.3526136 -0.4771285 0.32752636 0.5808033 -0.14504464 -3.1998103 -0.6018015 0.008298837 0.9347696 -0.57519996 0.18701975 -0.2833064 -2.399723 -0.48640794 0.4180143 -0.6521082 -0.02752642 0.14305927 -0.31993824 -0.16197732 0.14489505 -0.15632996 2.3423746 -2.10636 0.9630393 -0.07962958 -0.45061806 -0.2954051 0.3011038 0.34000608 0.0540908 -0.21821654 -0.43940136 -0.42597017 0.44441304
me 0.7198404 -1.4348234 0.5570304 -0.9281645 -0.02425735 0.08521792 -0.41858 -0.1662659 1.7461326 1.1776061 1.738262 -0.6628704 -0.13020061 -0.13123727 -0.37698215 0.36175483 -0.5417694 -0.31154597 -0.028035559 0.22391342 -2.0127347 0.40282413 -0.2698587 1.7145027 -0.13207619 -1.9680158 0.15447459 0.4897622 -0.06844114 0.3979925 0.32234567 -0.33610168 0.2229016 0.3471554 0.15918273 -0.79595494 0.22734745 0.056949686 1.2764823 0.13232721 0.075402975 1.3519477 -0.6148812 -0.73499346 0.5983891 0.7033997 -0.2979003 -0.16536435 0.14471374 -0.18535066 0.5140904 -0.24162273 2.258752 0.27033302 -0.15568045 0.26835072 0.8012478 -0.6962927 -0.16824763 0.42977545 -0.36165228 -2.5104296 -0.7355391 0.22430013 0.31002393 -0.12647413 1.0250343 0.7717973 -0.36127862 -1.9882629 0.5892488 -0.15987074 -0.20677087 1.5255721 -0.18704787 -1.509944 0.8828228 0.23441128 -0.0732452 0.3775284 0.2086394 -0.7547038 -0.83147794 0.98961437 -0.4653311 0.6219312 0.22965255 0.70842314 -0.985166 -0.2255636 0.45142758 0.6994348 -0.10609797 0.12448075 0.353388 0.5742376 0.0016030575 -1.1093371 -0.67305416 -0.07319051
of -0.3487861 -2.0419564 1.2364583 0.2065525 1.4924176 0.870665 -0.7192041 0.049341705 -0.33151907 -0.018397368 0.14932303 0.41529495 0.019542947 -0.2507018 -0.09771482 -0.05059487 -0.1569659 -0.09981903 -0.08203504 -0.09252286 0.031968974 -1.4178447 1.0236429 0.042778537 0.29835168 0.40722662 0.55116165 -0.029120652 -0.12668952 -0.006877177 -0.55858505 3.0210993 1.172917 -0.46232876 -0.050519563 -0.49057513 -0.036749825 -3.9223726 1.3792951 0.10885988 0.37690806 -0.7929187 0.12923895 -0.28129846 -0.5063915 -0.29534447 3.0343077 -2.0460832 0.1744807 -0.16717966 0.004950766 -0.38656402 0.18088506 -0.20828575 0.09338303 0.02838016 -0.1108505 0.17483814 0.76207495 0.17379858 -0.04002669 0.021542251 0.11913427 -0.1440089 0.14482681 1.5055978 0.5355487 -0.09030002 1.2917985 0.35717133 -2.9264753 0.20610082 0.19053312 -0.7374709 -0.39303213 -0.061128724 0.22612073 -1.9210867 -0.4059251 -0.7024295 0.14128903 -0.017670473 -1.1264322 0.33043963 -0.025843503 0.027596945 -0.70973945 2.6252682 0.124927856 -0.2287526 0.14314808 1.9402951 -0.13170777 -2.4146755 0.008433131 0.07053616 0.0913531 -0.041484524 -0.4423404 0.23627965
that -2.1217096 0.31148812 -0.3409047 0.29178014 0.60961473 -0.16035843 1.0735271 0.28755334 -0.7275934 -0.109247625 0.14369453 0.26937076 -0.7544233 0.26840463 0.9496299 0.059461903 -0.35464108 -0.17852123 0.103676975 0.17605908 0.14603055 0.22542387 -0.24618372 2.3174305 -0.8777796 -0.6086576 -0.023960795 0.50271714 0.19257325 -1.1608862 -0.69682395 0.004283203 1.0689169 -0.6471593 -0.12253166 -0.38091007 0.55963594 -0.38202363 -0.10695575 -0.35211536 -0.06257506 -0.713559 0.56843317 0.1819715 -0.5741273 0.15888622 -0.2733841 -0.33765557 -0.45179215 1.8591584 -1.1231513 -0.5209296 0.012816381 -0.15837066 -0.007386337 0.25972563 -0.008265474 -0.6672393 0.17823894 -2.7239006 -0.0799365 -0.09583009 0.34044838 -0.3274678 -0.3612679 -0.68352574 0.12982728 0.4806259 0.92460567 -0.6603051 -1.4840605 -0.39994743 0.47667947 0.06846437 -0.52043366 -0.4889803 0.9064305 -0.15924051 1.4451004 0.6778595 0.44065082 -0.63922155 0.53649783 0.70133585 0.21417059 0.42598048 -0.74692655 -0.7712162 0.68362606 -0.057653658 0.2690953 -0.26397628 -0.63927555 -0.18935615 0.46493524 -0.66110414 0.78350294 1.0842348 -0.52582633 0.046188097
it 0.010275347 -0.13133267 -1.1753539 -0.92224973 0.17437352 -0.27534837 0.40693676 0.47108653 0.3289147 0.19073935 0.5223203 0.13576172 0.26099914 0.05849818 0.7613128 0.3192806 -0.21110329 -0.56598204 0.8402133 0.38364795 -0.6808939 -0.1638599 -2.0331054 -0.78285426 -0.22331925 0.5907882 0.41897 0.23661025 1.6652634 -1.7376226 -0.93275833 1.1732332 0.1869094 -0.14668877 -2.253801 -0.75609237 -0.07918272 -0.6709675 0.31870613 -0.93228835 1.0800489 -0.28286663 -0.1685556 -0.7657002 -0.5113156 -0.10016808 -0.25442597 0.09136826 0.6323475 0.21068597 -1.0604812 -0.19037648 0.18351427 -0.79375976 0.19093634 -0.066623315 0.6780654 -0.12952313 -2.0606244 -0.6538707 0.053045005 0.42019987 0.25369188 0.5376136 0.22129124 -0.15386452 0.28284335 0.7136942 0.21498695 -0.008185249 0.83661133 0.05185143 -0.893974 0.93211865 1.0032924 0.71574926 1.3565493 0.2127513 0.8824223 0.079722755 0.4475622 0.669025 -0.18697295 1.0902747 -0.31798953 0.23595433 -1.1897305 0.13440342 0.5562254 0.5908899 0.94231194 0.069392584 -0.33957842 0.09931974 0.38111255 -0.068258815 -0.86770207 0.59601617 -0.34923548 0.8094878
my 0.37169036 0.43180683 -0.29504657 -1.9382597 -0.2020149 -0.048563123 -0.042648103 0.090678014 -0.3067936 0.13599995 1.7036873 -0.11604652 -0.4261286 0.8827483 0.27939847 0.09283954 3.6743789 -0.22051848 -0.10126262 -0.40433928 -0.05240422 -0.4411902 -1.3142989 -0.17398445 0.43670017 -2.8499424 0.020769574 -1.197996 -0.12797083 0.42025054 -0.20127784 3.7472818 -0.05915365 1.2760772 0.27454764 -0.38696653 -0.0899295 -0.028470645 -0.196438 -0.40661165 -0.22330435 1.3956494 0.68495893 -0.35664353 -0.66562825 0.0050052246 0.13312022 -1.987545 0.03528533 0.30845818 -0.14716727 -1.0776849 0.04341955 0.039368466 -0.1223804 -0.29286033 -0.21845078 -0.31389618 0.19211401 -0.3168426 -0.24209875 0.80205613 0.095080025 0.030007819 -0.25638178 0.9214033 -3.6656969 0.26942596 1.2305727 -0.2293838 -1.0198815 -0.46256047 0.36804792 1.7304853 -0.3452362 0.118446104 -0.047241908 0.46409938 -0.14936808 -0.19329375 -0.65143174 -1.7397472 -1.4004151 0.3847768 -2.3849223 -0.039326664 0.6408589 0.82734627 -0.0076299002 0.7943132 0.19448502 -0.36438572 -0.5486848 0.20557155 0.04192484 -0.119822465 -1.6634386 -0.18977904 -0.37660584 0.31763917
your -2.929996 -0.2021832 -0.84471124 -0.6088995 0.10527926 -0.21606033 -0.22513036 -0.06735258 0.5836763 -0.19320631 2.1696246 -0.76304567 0.10133897 0.6731668 1.6769813 0.29008704 0.5876607 -0.18915604 -0.55108005 -0.14165421 -0.12686953 -0.18035607 -2.0711234 0.3263135 0.3399537 0.43167064 0.38277987 -1.5719851 -0.20977071 -0.8165593 0.27410755 2.9647546 -0.0299858 0.23276117 0.5007597 0.3917321 0.30173805 0.4256414 1.4193009 0.41779077 -0.09030596 0.092268735 0.033248574 2.0844507 0.97330904 0.03775835 -0.47638997 -0.5723223 0.30922946 3.830798 -0.08527556 0.17825645 0.21606664 -0.010895393 0.035759017 0.069211684 0.50492644 -0.10419712 0.07064355 -0.03396418 -0.12740025 -0.102078505 0.00977785 0.16442542 0.009921524 4.0896997 -0.46007204 0.25719103 1.2532356 0.051281635 -0.8869504 0.013203085 -0.7338292 0.854635 0.25399953 0.2293643 0.75874066 -0.092922814 -0.52082956 0.25568318 0.16593438 -0.31201634 -1.0930222 -0.37970906 0.16671221 0.31955564 0.0026827892 1.0102007 0.4392479 -0.28996646 -0.4660954 -0.15870918 3.237621 0.3304864 0.3162398 0.1495582 0.40228093 -0.21006738 -0.28576604 0.31682643
is -0.14934295 -0.08996111 0.26210257 -0.24872121 -0.01222552 0.20174074 -0.005825758 -2.957293 0.44026014 -0.3325612 -0.045068946 -0.8845771 -0.21504822 -0.3185045 1.6133435 -0.19701803 0.09616298 2.5792997 -0.36506256 0.17449841 0.08128563 0.58917975 1.0328084 -0.3480285 0.72030824 -0.7593362 -0.10724239 0.2722398 -0.016886035 -1.0939308 1.0608081 0.933703 0.36458838 -0.36753577 0.633952 1.7758831 0.31079718 0.7447029 -0.6491436 0.46567187 -0.11239398 0.29523748 0.23167887 -0.30472976 0.13010035 0.11708644 0.40373784 -0.91909134 -0.35612324 -0.23979154 0.3866145 -0.56253 0.03709283 -0.097237304 -0.08979952 0.3885266 1.3660924 0.053080417 -1.4672314 0.441671 -0.08806076 -0.21664234 0.69921666 -0.5875246 0.4095864 -0.055533096 -0.55671155 -0.8873759 1.5606252 0.5145431 0.38461956 0.3890232 -1.1892624 0.20478703 0.10755064 0.15931779 0.28789127 -1.2345624 0.835375 0.7793086 -0.2879646 -0.25046527 0.100706324 0.13601078 0.57379687 -0.10842075 -0.3945284 0.42764798 0.3666915 0.0980861 -0.70184094 0.8875787 -0.19717254 -3.6405797 0.5101243 -0.16247648 -0.14207043 -0.713154 0.08133104 -0.19967772
dont -1.6399573 0.22680895 0.34830624 -0.938776 -0.1793063 -0.07234936 -0.18171449 -0.699649 0.53877485 0.67481905 0.38845584 -0.22935584 -0.40583137 0.40312624 -1.2205775 0.53269476 -0.04728246 0.028529292 -0.54861337 -0.06870484 0.43475285 0.3226396 -1.3597054 2.061874 0.77235466 0.34449923 -1.8113105 0.56662625 0.7297082 -1.7577983 -0.20744163 0.2588732 0.70067775 -0.5245439 -1.9114726 -0.61186343 0.7794328 -0.3754546 0.24849156 0.07000412 0.4433096 0.31404302 0.61079204 -0.041146 0.028320499 -0.44933406 -0.04015997 0.7033555 -0.63281924 -0.219046 0.30855396 0.3186992 -0.7125313 0.06063416 0.5650209 0.46070826 -1.027132 0.54015714 -0.11367767 0.05870865 1.3889804 0.1946052 -0.056701176 0.25683272 -0.122595094 1.1049931 0.55027324 -0.2302736 0.3396968 0.2049986 0.08419886 0.78800917 1.1566452 0.4137225 -1.209736 -1.51926 -0.86673087 -0.5301505 0.0027743925 0.036220897 -0.5222362 0.3289029 -0.17563841 -0.0036758038 0.026177108 -3.1639972 -0.60401464 1.2548064 0.55584455 0.5076421 0.26243493 -0.40356517 0.13749108 -0.8218512 0.4961586 0.22903244 -0.4251229 0.5211138 0.34970212 -1.3374952
we 0.34417692 0.21815681 0.47218603 0.6789962 -0.35630715 -0.97026724 0.27719775 0.3999122 0.9912786 -0.068667114 -0.45389044 0.08315009 -1.3890827 0.21677256 -0.6753664 0.37323907 0.077931695 -0.06923884 0.1164027 0.20764315 -1.8884541 0.5113017 -0.40441406 -0.5332309 0.46339598 1.0512428 1.0832634 -0.13914478 0.56412464 0.7107289 0.24632262 0.2520839 -0.28817952 0.016125597 0.49614355 0.41322953 0.28286594 -1.1689135 -0.293966 0.0962172 0.49680933 -0.5507148 -3.295021 0.95898795 -0.2679939 -0.2617775 -0.532863 0.027432146 0.143718 -0.06788763 -0.379098 -0.6568223 1.0380005 1.7232575 0.21791542 -2.072311 0.83364725 -0.57457614 0.4989172 0.26406792 0.7654514 -0.36815542 -0.1705546 0.5904932 -0.40029794 0.228177 -0.8237557 -0.4387972 1.0265195 0.20345803 0.13021089 0.4195337 0.48593765 0.6518485 -1.0045825 -1.5873544 0.745036 0.0037220032 0.43811128 -0.27782786 0.46225262 0.13149461 -0.8082938 0.60726863 0.8946586 -1.5319144 1.1213433 -0.43588638 0.8113011 0.26947877 -0.5094699 -0.124614015 0.5911752 0.28967655 -0.09666466 -1.1793668 0.30677408 0.12949277 -0.584701 0.8333052
in 0.49420992 -0.39518988 1.492749 0.4178117 -0.81260407 -0.23192851 -0.016562762 0.29108396 0.33211684 1.7031426 1.7467039 0.2850605 -0.4098916 0.4600813 -0.558766 0.30621207 -0.10484949 0.055783574 -0.12586336 0.5859199 0.042461943 -3.5075037 -0.364435 -0.60603887 -0.22632588 0.6039921 0.65367424 -0.041112836 -0.15733275 -0.28406167 -1.2579257 0.35633615 -0.044913862 0.10419505 0.55803084 1.0209298 0.53168 0.3274687 -1.0184891 -0.3073169 -1.6333169 2.8550906 -0.8988872 0.9015085 0.62818277 -0.15588781 -1.4528077 -1.2064004 -0.08232699 -0.5700395 0.12371206 2.1751297 -0.43931878 -0.62833726 -0.1447263 0.12438887 1.1204226 -0.49377018 -0.55568624 0.31878388 -0.38148707 -0.8318811 -0.7314479 -0.09604964 -1.0854787 -0.43426418 -0.55005544 0.2612439 1.5730784 0.014927535 -1.1944646 -0.10653199 0.10021332 -0.068039216 0.49270082 -0.1956894 0.22446977 -2.7645018 1.5397298 0.14287157 0.6323839 0.24198101 0.46485633 -0.05838156 1.446849 0.5096011 -0.45714745 2.147069 -1.5577747 -0.03762326 0.0143208215 -0.45998493 -0.062594175 -1.1062849 -0.9725545 -0.592366 -0.17923887 -0.12974533 0.90736103 0.20238853
not 0.66931605 0.8721779 -0.30949494 0.22922674 1.4954307 0.1127906 0.56268466 -2.0586145 -0.5318451 0.7134477 -0.09023615 -2.4070308 0.43753907 -0.22151218 -0.6273722 -1.6197397 -0.3951828 0.5575053 1.8854163 -0.5187903 0.2779237 -0.09379566 -0.83993477 1.0798291 0.32056025 0.8032274 0.6171799 0.11860066 -0.35705426 -0.36516386 -2.303606 0.12153692 1.2080977 0.15334286 0.101670355 0.121214904 -0.016295062 0.18802162 -0.70122594 -0.1645579 0.5268401 -0.62516457 0.20806454 -0.09573281 -0.1326171 0.44168785 0.19033478 -0.719091 0.90893674 -0.5266677 -0.21214433 -1.4056969 -0.50588936 -0.28378114 -0.51871705 0.20903933 0.16395335 1.0967021 0.25756165 0.6267661 0.10589944 -0.40507936 0.8963884 0.4810517 0.37224022 1.042476 0.2802636 0.08498619 0.04171659 -2.1933417 0.17694288 -1.0465366 0.4436483 -0.10932088 1.3593763 -0.86153305 -0.7155769 0.46379375 0.13807757 -0.34346676 -0.2130751 -1.698736 0.07418744 -0.83282363 -0.080366455 0.18585654 1.9665358 -0.5081479 -0.05779621 0.44625878 -0.26383555 -0.056666024 -0.20127511 -0.9192316 -0.29852763 -1.2288508 0.12261649 -0.87226117 0.41186416 -0.8555139
with -0.17824368 -1.0535938 0.61115927 0.27208358 -0.31773803 -0.49638578 -0.5341492 0.045962688 0.34526065 0.8949043 1.9124782 0.28173628 0.049015164 -0.7618911 -0.4844432 -0.35779858 -0.9304181 0.25109383 3.314636 -0.100982435 0.008492253 -0.37473142 -0.76315004 -0.5520919 0.16532542 0.4393565 0.5491537 -1.9470142 -0.32247066 0.088975035 -0.44876897 -0.47827205 -0.15376411 -0.31535837 0.1758921 -0.2901593 0.26795515 0.15241995 -0.3208783 0.71225417 0.24633317 1.7078336 0.36520663 -0.447476 0.5936033 -0.430951 3.6188862 -1.4279616 -0.0114286095 -0.014454549 -0.03843314 0.8442615 -0.48142424 -0.06896849 0.012152355 0.4116837 -1.7863336 -0.2167363 -1.7243813 -1.6864486 -0.34106785 0.45310485 0.4741047 -0.017597271 0.4224528 -0.43588576 -2.5120778 -0.1429636 0.5251687 0.3239725 -0.24718136 0.64389384 0.27087918 0.36416572 -0.081902355 -1.8361901 -0.92069614 -1.2846391 -0.26554242 0.21628062 0.070714824 -0.043935552 0.42552808 0.050187998 0.8857241 -1.0933125 1.258125 -0.7985459 0.752286 0.7140228 0.40847132 1.9819769 0.20342882 0.36233106 -0.122628026 -0.53709793 -0.2887279 0.1871915 0.7572801 0.28483984
what -1.191171 -0.4200952 0.86813146 -2.1207163 -0.2849128 -0.04788219 -0.46743715 -0.1701997 -0.39487624 -0.18071297 -0.24887261 0.052311152 0.061431114 -0.3683543 -0.8043412 0.61270463 -0.22147468 -0.28296676 0.17254873 -0.20312467 0.38240087 0.28099605 0.6483025 0.51050955 -0.37917838 0.024353888 0.20550163 1.2206157 -0.56531733 -0.91633123 -1.130328 -0.24414305 -0.2092711 0.08113239 0.38140842 -0.523186 -0.3860175 -0.28613782 0.43571427 -0.2422835 -0.12522596 -0.7492655 -0.8010706 -0.12972519 -0.33132228 0.7158014 -0.49953508 1.0595924 0.8742819 0.12667091 -1.1868317 -0.7688706 -0.3573198 -0.29274112 -0.8824298 -1.1755607 0.0786168 0.49251363 -1.4946564 -0.5805551 -0.46965584 0.19873083 0.44862962 -0.033431116 0.3871774 -0.35411966 0.40841094 -0.08524905 -0.4467202 0.8952518 0.5357925 -0.24295858 0.21795489 0.21384735 0.54114485 0.42035246 -1.10371 0.6914338 1.3207835 0.28454748 -0.05446368 -0.88933975 -0.36686856 -0.3396896 0.14976162 -0.082098894 -0.42973974 0.049490318 -0.97112006 -0.20043343 0.7061329 -0.271044 0.620562 0.35778147 -0.672416 -0.9331258 -0.003961189 -0.97652835 0.29315516 1.1380467
do -0.18510653 0.019344816 -0.28393528 -0.40822896 0.615896 0.027780294 -0.123439565 0.14076066 0.76124096 -0.07325711 -0.58348405 0.53989124 0.1859322 0.1936882 0.63393646 0.61886764 -0.45181444 0.120532654 0.29422733 0.21780258 -0.8161367 0.12532227 -0.78296214 0.9057101 0.20460992 1.0729836 0.98981297 0.865737 -0.8651136 -0.74154884 0.5586561 0.09969699 -0.492578 0.38045612 0.49061057 -0.077735215 -0.273379 0.537234 -0.11632931 -1.0299253 -0.32855615 -0.38028246 -1.0209949 -0.49233875 0.360823 0.30688885 0.041810125 0.6369475 -0.8652237 0.36936837 -0.028515024 0.8001981 -0.07105376 -0.36192513 2.0463662 0.3813143 0.56428146 0.24326983 0.32339233 -0.23751011 0.12673187 0.83799106 -0.32717073 -1.7106111 0.8995172 1.1395788 -0.03492192 1.0101424 0.4777849 -0.07493766 -0.17726488 -0.30904028 0.54016167 -0.2096422 -1.0746258 0.6076349 -0.21893023 0.3438167 -0.48775086 -0.40384382 0.4193892 0.04763414 0.52606565 -0.43834352 -0.5516228 -1.1634847 -0.44730935 0.14402477 0.023715263 -0.2507615 -1.4994863 0.20100452 -0.54744864 -0.23285665 -0.4474281 0.28657338 -0.5550037 -0.033989128 0.64630806 -1.468773
for 0.36629003 -0.3711563 0.76097 0.4351865 -0.38155222 -0.102480665 0.467305 0.112120874 0.04644117 0.36802194 -0.06736798 0.6929355 0.1374118 -0.71286815 -0.21230167 0.24455196 0.59560174 -0.20804997 1.5923859 -0.91109866 0.30064866 0.995546 -1.2475457 -0.20429932 -1.6380372 -1.039077 0.6774391 -0.07401992 -0.49874118 0.36378473 -0.0002836231 0.4180509 0.41795078 0.09878285 -0.4475706 0.7721472 0.40943664 0.34392866 -0.45999405 -0.5876873 0.64820445 2.1929674 0.34445363 0.1741777 0.09109487 0.0685111 -0.95748365 -2.1113265 0.050318465 1.0964484 -0.60666215 -1.152789 -0.2070836 -0.68164593 0.46837708 0.36300224 -2.9418952 -0.007388668 -1.1091532 0.5866894 2.7466447 -1.7295015 0.8226641 0.10668472 0.34166226 -0.04497492 0.86908174 -0.24504033 1.4384711 0.22974324 -1.2855828 1.4494066 -0.034591466 -1.0194948 -0.523609 0.23666804 0.7281535 0.24568333 -0.6194559 -0.37321094 0.35643405 0.4132056 -0.23480473 0.14130618 -1.9260604 0.24929 -0.8572933 1.9535005 -0.15630437 0.7948183 -1.1966906 -0.20597516 -0.65276635 -0.27889165 -1.2298706 -0.0808953 0.29032594 0.24700454 0.22142261 -0.09512776
im -0.48738408 -0.37729627 0.5255535 -0.5988723 0.01208088 -0.0025822495 2.4458852 0.0018475291 0.30454063 2.0078154 1.5682834 0.05511029 0.23858336 0.15107827 -0.20113009 0.58573127 0.64146674 1.4287753 1.1138561 0.29129454 0.11438179 0.12226053 -0.11384956 0.15393539 -0.11803133 -0.8481173 -0.63237697 0.35356987 -0.23527703 -1.4732544 -0.56640786 0.1869967 -0.5251976 -0.3148311 -0.31369734 -0.34792313 0.71620053 -0.541237 1.4287025 -0.5448171 -0.17908286 -0.47195956 0.30227736 0.3758131 1.1285064 -0.57298183 0.18552196 0.4497206 -0.19342373 -0.51983315 -0.14724705 -0.9321605 -0.040726278 -0.20705526 0.1218247 0.41667253 0.4048577 -0.2732106 0.48594385 0.55635697 -0.026759075 -0.086149774 -0.16988926 0.4253714 -0.2386968 1.2633609 0.25745398 -0.10635254 0.71401566 -2.6176307 0.9224214 -0.1608715 -0.53113085 -0.057728708 -1.1063236 0.40344572 -0.0040007955 0.07117575 -0.6609348 -2.0295846 0.38178447 -0.4030048 -0.27970687 -0.81974447 0.58179855 0.024312953 0.21901926 -0.6072655 0.06543623 -0.96485114 -0.23181313 0.27996343 0.28991416 -0.42026505 0.36631 -1.795099 0.04959821 0.8884476 0.63871384 0.4896595
know 0.029316556 0.08565756 -0.22410044 -0.11277056 -0.44152862 1.1521128 -0.83461744 0.43465397 -0.4974692 -0.4112106 0.7948285 0.12727234 -1.432979 0.24582559 0.90846556 0.19688773 -0.097734444 0.33829305 -0.07467164 0.739596 0.17589876 0.1350734 -0.6839253 1.0087217 -0.06192628 0.650198 -0.39713943 0.33122048 -0.5310065 -1.0059509 0.40316385 -0.14985731 -0.92950237 0.2662615 0.089981236 -0.4488718 -0.24438275 0.23806901 0.14462057 0.81948465 -0.29653972 -0.7672207 0.5411439 -1.3760556 -0.45247784 0.3526283 -0.91687584 0.2417524 -0.44359875 -0.6967289 0.24888507 0.34892887 -0.8001081 -0.9322794 -0.5922571 0.23116861 -0.07656868 0.51979 0.17177418 0.6243658 1.4202061 0.5613221 0.6884422 0.0071869036 -0.013820585 0.2690227 0.23248862 -0.22410248 0.55242854 0.39843675 0.0046195462 -1.0564293 -0.15942831 -0.2109442 0.5433752 0.32637647 1.0676603 -0.7760207 0.51337206 -0.6006593 0.28726727 0.66979766 0.046276778 0.7533792 0.32895908 0.57372624 -0.24812837 -0.2077593 -1.6258113 -0.32814223 -0.4693958 0.3696808 -0.34605008 -0.37268525 0.47271833 0.3272538 -1.1899915 0.008442818 0.32327408 -0.7352573
have 0.2886676 0.28644323 -0.356546 0.22458956 0.16082726 1.0182198 -0.76964587 -0.15179484 -0.6220387 -0.45791093 1.7285712 0.40921277 -0.034768533 -0.3873127 0.6376355 -0.68613744 -0.65624934 0.029581662 0.089445174 -0.0786292 0.10521278 -0.19101693 0.27467188 -0.7076117 -1.1656339 -0.683395 0.40395045 0.66200536 0.22651523 0.7615539 0.27942953 0.90598804 -0.55136585 -0.18414438 0.083217226 0.5830723 0.67771643 0.5134581 0.68585634 -0.0035638926 0.8453841 0.3440309 -0.015262046 0.21098086 -0.6998618 -0.025224388 -0.64070064 0.063113295 0.43058965 -0.23417543 -0.11083418 0.76733434 -0.06870262 0.98646337 -0.28313798 -1.1407369 -0.43842608 -0.030882884 0.16341364 0.2530369 0.2681213 0.3210934 -0.7212523 0.35601434 -0.019716512 0.26061615 0.037758686 -0.712758 1.42888 0.44796905 -1.0233134 -0.3567575 -0.6425579 -0.5367747 -0.08525986 -0.4967812 0.58632445 0.9727352 -0.120774895 0.66781056 0.6148143 -1.2841939 -0.10298505 0.6271433 1.753841 0.3228504 -0.06913646 0.42915192 -1.3365958 0.121936314 0.73674154 0.29044527 -1.0845788 -0.27593085 0.4228648 -0.6044291 -0.19645219 0.8397828 -0.28465798 -0.1761678
be 0.3736276 -1.1045886 0.23265629 -0.24364321 0.6568661 3.4425383 -0.335722 -2.864687 0.9781658 0.032355938 1.9141828 0.10299722 0.18765348 -0.13577902 0.5587419 0.3182684 0.37767234 -0.28972778 0.25290772 0.018842522 -1.6698431 -0.41602853 0.20283762 -0.23941693 -1.137471 0.68581915 -0.07376362 0.2312112 -0.31732768 0.6561104 0.80756533 1.2044946 1.3181579 -0.39080712 -0.42829022 -0.35292736 -0.037475485 -0.3663746 -0.9771305 -0.11342915 0.22068067 -0.997301 -0.056898475 0.9343288 -0.014195128 -0.33132222 0.9196447 -1.0935894 0.6189342 -0.08449966 0.22656427 1.4885315 -0.7062925 0.66331553 -0.3279562 -0.8275463 0.04914791 -0.09748427 0.3312889 -0.7356588 0.08580085 -2.1010783 -0.8115546 -0.042774197 0.82692194 -0.57593507 0.81272006 -0.4977042 0.87596446 0.27645624 -0.09950062 -1.4429011 -0.92800486 -0.22376114 -0.9026381 0.7785824 1.052381 0.6445773 0.23797442 -1.5566605 -0.08365392 0.0035885405 0.32225066 -0.7105632 -0.8729777 -0.0016712479 -0.51461524 -0.059401266 0.3225186 1.1520598 -0.23130256 -0.59130263 0.55365324 0.63146424 0.41822866 0.03493721 -2.7628968 0.530148 0.15200739 -0.2827151
but 0.6507711 0.5342132 0.45678928 0.5067806 0.24129978 -0.25985175 0.4261376 0.64851165 -0.4694241 0.25701225 -0.6566368 0.75248617 -1.905726 0.08449584 -0.116835445 0.22046907 -0.7935386 -0.0034585036 1.741523 -0.12906255 -0.27274504 -0.41573864 0.30073285 -0.24568881 0.14307715 -1.3369651 0.043294933 -0.54901785 -0.048397537 -2.1053667 1.0100421 -0.0010164831 0.1561899 -0.21219514 0.35623556 0.474087 -0.2867518 -0.15696613 1.2470018 0.15816955 -0.40943924 -0.19924307 0.17048231 -0.8745583 1.3625895 0.20173693 0.25259718 -0.63488805 -1.7558814 1.0202104 0.60822016 0.24719343 -0.07024008 -0.42676565 0.4397349 0.5650997 -0.08950359 -0.71903294 -0.06891808 -1.0046121 -0.18313915 -0.5865511 -0.016919818 0.23874776 -0.63563 2.0306253 0.29415706 0.15597747 0.51622 0.9543806 0.31486577 -0.305332 0.28104812 -0.18209466 0.73906666 -0.8240154 0.82494235 0.2555672 1.1284306 -0.75957155 -0.5709172 -1.2768708 -0.1274609 0.41844782 -0.2107632 0.21772724 0.1918988 0.22361815 -0.24637085 0.8265081 0.33230957 -0.39903137 -1.0298944 -1.4316891 -0.24809898 -1.4357117 -2.7514553 -0.17018518 -0.46515325 -0.011873335
this -0.38534388 -0.67417294 -1.1010282 -0.38234776 -0.31721386 0.2341747 -0.41094464 0.19868758 -0.09064847 -1.0764935 0.4815531 -0.91707087 -0.44713336 -0.17879586 0.3487093 -1.2078866 -0.6979676 0.9499643 -0.7940511 -0.28140286 -1.0450063 0.32808793 0.58128744 -0.081056714 0.18703705 0.47841957 0.7154799 0.19793819 0.11245208 0.3030275 -1.2116406 2.2377062 -0.30113813 0.98444164 -0.21222775 -0.19686694 1.1005455 -0.00599988 -0.17551777 0.021199195 0.5919076 1.3307365 0.27792838 -0.64248097 0.22111607 -0.37609068 -0.22956039 1.1145473 -0.4123345 0.11206663 0.33566844 -0.25314093 -0.302075 -0.06000884 -0.42890725 0.24234582 -1.2891028 0.8900306 0.7173629 -2.5130897 -0.06663523 0.67340314 -1.2710907 0.45401433 -0.32102805 -0.3378199 0.0003867805 0.5936686 1.5526453 -2.1269407 -0.042551078 -1.3539526 -0.23575969 0.9553136 -0.31753173 -0.061441865 0.25449437 -0.026717374 0.3689046 -0.44212836 -0.10063394 0.25189403 0.0506781 -0.2987441 1.1729611 0.2578251 -0.6665172 0.72798944 0.8864929 -0.30519855 0.6021926 -0.5514945 0.5447985 0.8765223 -0.11311088 -0.73460263 0.60895467 -1.9024014 0.17531471 0.1625637
are 0.42554143 0.30872744 1.5110142 0.458655 0.5328998 0.5141185 -0.38054234 -0.15641105 0.61597365 -0.41377038 1.7708718 -0.25710532 -1.2781821 -0.19011888 -0.13698654 -0.032174524 1.4922733 -0.09515651 0.21242203 -0.54873127 1.1328989 0.56925404 -0.579526 -0.42744714 0.299151 -0.25291672 -1.7661374 0.85231423 0.18174742 -2.2867916 -0.57285845 -0.32568076 -0.3264842 0.107486434 -0.16475107 1.7458283 0.13084418 0.32584375 0.0057100947 -0.57360804 0.6546079 0.45131695 0.0005242255 -0.11750957 0.8820412 0.26942465 0.39832714 -0.7625395 0.15265992 0.48208785 0.1627338 3.4975464 -0.5207111 -0.18368654 -0.07070783 -0.6685855 -2.080267 -0.019492045 0.21186559 0.14666344 -0.45497304 0.18873566 0.42148408 0.28889164 -0.6196184 0.78265595 -2.4582758 0.4048232 1.6888931 -3.474018 0.6885978 0.16370565 0.22411044 -0.31234163 -0.13336463 0.39388442 1.6255198 0.8867054 -0.026859105 -0.29069757 0.5224722 0.17531028 -1.3199576 -0.26122263 0.6449163 0.93798065 -1.2813478 0.39878035 -0.057103194 0.3761542 -0.49739084 1.8338988 -0.12325777 -0.29918072 0.34208554 0.58666945 -0.609439 0.19437204 0.42063722 -0.07246225
he -0.23892164 -0.039084326 0.9156937 -1.334389 -0.16394278 -0.1134555 -0.047534462 -0.8083093 0.7979475 0.1960167 0.51288426 0.3909161 0.017443042 -0.8404671 1.8345046 0.57934135 1.754209 0.07545443 0.9891135 -0.10625202 0.36465317 -0.107454106 0.17685843 0.03282117 0.3169377 0.71523803 -0.17177658 -0.9149049 -0.8140722 0.044294424 -0.2827742 -0.57651705 0.82965976 -0.35503098 -1.4089508 -0.43124446 -0.2317679 -2.8672466 0.041826505 0.06596167 -0.046723388 0.98945 0.36319536 -0.74459326 0.9426912 -8.819639e-05 -0.0863454 0.80356187 0.7959976 -0.020506907 -0.1299803 -0.2438595 0.0048043486 0.3148329 0.677906 -2.0360155 -0.7725612 -0.064028576 -0.06738027 -1.1541501 -0.49229246 0.20670171 -0.205968 -0.022731068 -0.4851527 -0.355851 -0.3329646 -0.30014905 0.2404098 0.076630205 0.3223545 0.9552502 0.4427266 0.15473829 -0.91457593 -0.5562002 -0.3407003 0.4398171 1.2917436 -0.09269731 0.08824973 -0.4817503 0.33506367 -0.42524254 0.3203101 0.3520106 -0.6525881 -0.53201866 0.23800835 -0.6627832 -0.09214003 -0.31863022 0.4909956 -1.9360662 0.22697315 0.022294398 0.42108414 -1.1112342 -0.10306408 0.5521671
her 0.1351977 -1.643746 0.52718025 0.19253366 -0.19809674 1.1528392 1.6907935 0.038892925 1.7616551 -1.1117212 1.3003616 0.31140837 0.21544898 0.50323063 0.5822343 -0.21287291 -0.4672218 0.9329496 0.6150733 0.2651901 -0.35383624 0.91773134 -1.5124472 -0.92006755 0.31245214 -1.0186 0.14959309 -1.080991 0.43512228 -0.24064735 -0.92156625 0.19932994 0.39722395 1.9276534 0.38468915 0.2828122 0.3019845 0.17677523 0.95761275 0.06841326 0.039239854 -0.4768729 0.35330316 0.56049824 0.43334138 0.3962819 1.7293833 0.40814307 -1.265841 -0.20575817 0.2026953 -1.2657173 -0.249405 -0.023760613 0.34905815 -0.15491562 0.5294159 0.8939553 0.043699354 -0.82763404 -0.6348377 -2.023296 -0.73019797 -0.29124212 -0.3459113 -0.116075754 0.4236357 -0.5879642 -0.30708748 -0.30363587 -0.15077321 -0.07204833 -0.33506817 0.32248342 -1.240647 -0.957977 0.3383044 0.95033824 0.46357363 0.90203935 0.29349047 0.2988867 -0.1299042 -0.46987566 -1.4861612 0.6605621 -0.5497536 -0.5626958 -1.3200771 0.08708727 -0.023845226 -0.029162733 -0.17866279 0.21387412 0.2885934 -0.69449914 0.6127477 -0.24945511 -0.46360338 -0.012348608
was 0.5004375 0.2905332 0.50330687 -0.16480246 0.2860667 -0.23016633 1.816347 -1.8589982 0.72137 -0.51429063 0.49849078 -0.97054166 0.46684185 -0.022522919 0.84178954 -0.2184613 -0.24598356 1.2420224 1.2006115 0.43908027 -0.002622158 0.1741199 -1.5450526 -0.07868341 -1.7108326 0.10609141 0.30169976 0.6070194 0.2654357 -0.205818 -0.20369092 0.18726747 -0.21053924 0.16484223 1.2046493 0.36535838 -0.7356967 -0.63427895 0.25269672 -0.12923487 -0.74606097 0.38028455 0.0413195 -0.7283291 -0.35321125 -0.2708603 -0.3429398 -0.18471573 -0.4285948 1.21269 0.58136815 -1.0602027 -0.15743034 -0.76452804 0.7662408 -0.10007283 -2.6472025 -0.40473363 0.664457 0.115888715 -0.5011035 0.36012277 -2.5700269 0.6651973 0.18327104 0.5718469 0.25289163 0.44080257 -0.09463989 0.40770352 -0.100713804 -0.014942049 -1.4507893 -0.23498498 0.12439192 0.09244054 0.45907277 -0.5412688 0.39525414 1.0305185 0.09115678 0.07902758 -0.04001827 0.11118969 0.37720606 -0.07321675 -0.07706901 0.88636273 -1.8802769 -0.044584103 -0.69018584 1.3239863 0.4086012 -0.11696042 0.43461594 0.0630036 -1.9779595 -0.63063776 1.2548418 -1.177425
youre -0.49370098 -1.4577924 1.0286825 0.26741156 0.100418136 -0.10575764 2.6756663 -1.4867382 1.4673475 0.62535876 0.19772598 0.17873089 0.2995529 0.6246483 0.18092626 0.15434216 1.3926163 1.4183486 -0.795901 -0.11810215 -0.18990849 0.1307817 -0.8583991 0.45904878 -0.31998107 0.057100553 0.029185575 -0.3048742 0.05030021 0.36757565 0.56684625 0.5111273 0.41429695 0.2595727 0.3838103 0.29881337 0.09867854 -1.187101 0.24766076 -0.73550606 -0.8917047 0.24169107 -1.0602894 -0.39864692 0.3497525 -0.17724441 -0.2927694 -0.4705534 -0.18795669 0.99360067 -0.3437433 0.81187904 -0.28381363 -0.5226284 0.70184916 -0.06661407 -0.61830944 -0.5419043 0.4229431 0.5462 -0.28780392 0.2236105 -0.48820156 0.08311656 0.5883925 -0.66966313 -0.6264714 0.3140045 0.87062067 -2.8782892 1.2164341 0.4336213 -1.8530439 -1.0661819 -1.0574269 -0.20555574 -0.50682086 0.6602989 -0.3856891 -0.34263763 -0.87863594 -0.1721898 0.052611515 -0.2740776 -0.6701961 -0.6899435 -1.1493952 0.9827539 -0.20958062 2.2693744 0.042601638 -0.5060043 1.1429669 0.017521208 0.3830828 -1.4824314 0.6295017 0.08925234 0.8820022 0.071346804
on 0.9592188 -0.033215337 -0.039641958 -2.1734147 0.68212867 -0.7387681 0.5456649 0.0037600356 0.43689033 -0.17990495 0.58071524 0.2536239 0.13062207 -0.15165077 -1.316258 0.0016212844 -0.70453054 0.12727378 0.32826918 0.2661278 -0.30920452 -3.4875164 -0.3827764 -0.69674754 -0.041702464 0.25771648 0.51356804 0.5106753 0.6910898 -0.5358499 -0.22837657 -0.913419 -0.564848 -1.2651899 -0.5484175 2.3728845 0.11535953 -0.9767488 -0.7783525 1.2218001 1.4084481 0.13772026 0.35482693 -0.6457014 2.0178337 -0.5328832 1.9129657 -0.7963034 0.13058208 -0.24880828 0.22578591 -0.3580167 -0.5585128 -0.5660489 0.09233978 -0.15048234 -2.4319773 -0.35887134 0.4938467 0.46094164 0.09897884 0.09088901 -0.43083543 -0.028004156 0.02982657 -0.61383295 -2.3826544 -0.4166506 1.1639148 0.18769561 -2.1999912 -0.058736738 -1.4291831 1.0327518 -0.7149295 -0.123986535 -0.07941622 -0.48971525 -0.36838308 0.47828257 0.094129235 -0.13179572 0.5948092 0.80487525 0.4869616 0.44349006 -0.530973 0.7520153 -1.3454809 -0.6643035 -0.44250795 -0.29236796 -0.04003127 -0.5229444 -0.32368606 0.19012247 0.15771537 1.0295944 0.5141304 -0.69285697
like -0.4534889 -0.41933775 0.5921728 0.20556468 -0.09092484 -0.14380096 0.25559795 -1.419805 0.7752217 0.13979083 0.1961598 0.8866805 -0.24449614 -0.40321738 -0.47651225 -1.1348625 0.13674545 -0.3264732 1.9151827 -0.10180883 -0.33823717 0.56886166 0.31460232 -0.4341036 -0.2640751 0.13551621 0.44358423 0.15563646 0.4424129 0.7447233 0.1015768 1.0816344 -0.5570006 -0.714918 1.0304068 -0.26871035 -0.1876769 0.3954344 1.1392817 -0.64941275 -0.59742486 -0.740523 0.08201144 -0.7032303 -0.51510465 0.82594675 0.59324056 -0.5684856 -0.07266284 -0.30769446 0.5318803 -0.6551302 1.0494664 0.033581287 -0.67213476 -0.23335919 -0.035503626 -0.43216252 0.07635652 -0.15758479 1.1937814 0.304299 0.071078904 0.49285772 0.0009960651 -0.5839055 0.29896292 0.6876754 0.47852996 0.069208585 -1.1026525 -0.48493636 -1.5962111 -0.26245606 0.20172733 -0.0052478737 -0.54411376 0.28359595 -0.6900943 1.0588921 0.06578374 -0.9113967 0.47168988 0.75644976 0.65028334 -0.16917218 -0.0116789 0.17507778 0.8522846 -0.46320456 -0.98153037 -0.5122746 -0.67463464 0.48577008 0.32526997 0.72934353 -2.0698729 1.062302 0.40568182 -0.7744786
out 0.7216781 0.48193803 -1.2321199 -0.7655265 -0.24642779 0.2645554 -0.31511745 0.2854717 -0.17888266 0.05099716 -0.017034909 -0.39430517 0.10626244 0.85891557 0.60237503 -0.2020559 -0.24830855 -0.46485916 0.44748804 0.8094475 -0.66372705 -0.6447334 -0.949825 -0.8139116 -0.42704248 0.7135462 -0.49619132 0.0017804343 0.38991565 0.039186895 -0.9729734 -0.21264276 2.0506768 0.8757473 0.49980757 -0.18122311 -0.06706579 0.6105592 -0.41706818 1.2141166 1.1332159 -0.79724705 0.30230048 0.04633562 1.4110333 2.12581 -0.47556165 0.20971999 0.26194626 -0.73358554 -0.11070007 -1.0798156 -0.54905844 1.5252944 -0.32420155 0.31112623 0.063797 -0.0972453 -0.07526872 -0.13196406 -0.0707194 -1.5649345 -0.5705614 0.13769022 0.5469422 -0.047543008 -1.3166531 0.3609563 -0.68137485 0.23771612 -2.1304798 0.31080616 0.22388428 -0.7980269 -0.72579557 0.10744828 0.119892746 0.3996512 -0.6166061 -0.50095385 0.2386362 0.38409212 0.3329134 -1.1191967 0.51524454 0.2631927 -0.66160494 -0.70719635 -0.45325106 -0.48476925 -0.20169243 -0.22069764 -0.13592742 -0.5877837 -0.041147966 -0.24310668 0.18457803 0.23643552 0.30320215 0.85916513
get 0.4051949 0.37486723 0.16853966 0.77623 1.4689538 0.48176134 0.54658115 -0.26349175 0.50575286 1.6401687 0.7317334 0.61841506 -0.2897817 -0.21338174 -0.6583022 0.2377538 -0.6036767 0.40018395 -0.68644416 0.19880931 0.49102703 -0.09377373 -1.2314062 -0.5241934 -0.8445766 0.85972726 0.5104423 0.86282355 0.53619206 -1.0721158 -0.050122004 0.80027235 0.20914279 -0.45768052 0.3460863 0.4363954 -0.46939656 0.057745203 0.19147013 2.1473737 0.69090337 -0.16999367 0.025635174 -0.29994556 -0.120943494 0.75370824 -0.44669527 -0.38611326 0.5178956 -0.03891164 0.08371165 -0.047243368 0.59092754 -0.28204942 0.45335284 0.18210752 -1.3134763 -0.49879605 -1.144635 0.15137658 -0.5881432 -2.477586 -1.0422175 -0.027380442 0.26230374 -0.6797359 -0.3069351 0.09652693 -0.5581068 0.28409326 0.58719057 -0.42629495 0.42560178 -0.46370563 -0.4085006 0.93223894 -1.1803614 -0.265315 0.9804837 0.27684826 0.005661965 -1.1882482 -0.60540473 0.46624845 0.71364295 -0.015377613 0.08107633 1.0564998 -1.3372862 0.32367906 0.5710775 0.57784843 -0.1929671 0.14128397 0.8249459 -0.16516453 0.19467899 0.46799514 0.7382574 0.22871655
go 0.92798305 0.750094 0.08853017 0.8494582 0.28140983 1.2240697 0.14436097 -0.2902102 0.8176662 1.1740128 1.7804931 0.5011264 -0.5420786 0.57707757 0.3054567 0.24875349 -0.83763385 -0.31701553 -0.36369318 -0.57942104 -0.6726811 0.70521146 -0.08266123 -0.8829742 -0.9307172 -0.1699269 -0.2716263 -0.30859968 -0.12617625 -0.24589707 0.62726456 -0.4068897 0.31530306 1.0505443 -0.034765754 -0.29638004 -0.08004327 -1.2062591 -0.36414513 -0.07493465 -0.27535364 -1.26549 -0.44322914 -0.46423706 -1.0016071 -0.07424949 -0.5926178 0.833361 0.09254269 0.0583683 0.6514821 -0.4699324 -0.6546041 -0.24221496 -0.41388157 0.8827665 -0.5841983 0.04184123 -1.113713 -1.6811991 -0.31590524 -0.3053337 -0.40263665 -0.23227318 0.49063006 -0.4416084 -0.35578948 0.49274275 -0.60837686 0.26460147 1.085209 -0.3207264 0.8490586 -0.39221343 -0.3580884 -0.8778389 -0.25128084 0.3376521 -0.13396448 -0.73397183 -0.14552449 -0.022662118 -0.3051533 -0.068353966 0.004054827 -1.367853 -0.46411076 -0.0966029 -0.58039826 -0.029784823 -1.0756541 -0.13551883 -0.87857324 0.14148036 0.19429357 0.30736244 -0.73901784 -0.06805202 -0.746896 -2.001133
if 0.9544405 1.363288 0.22878386 -1.1914135 -1.0480924 0.65859556 -0.3130223 -0.031325176 -1.1471215 -0.5039433 0.5775754 -0.35779324 -0.8591417 0.22347185 0.27729923 0.3506873 -0.57274365 -0.11578037 0.032467633 -0.08113572 -0.45856607 0.03668558 -0.31251374 -0.16518505 0.44768763 0.19817275 0.19746588 -0.29908338 0.42230713 -0.6027165 0.37988645 -0.3349795 1.1990346 -0.14981419 0.003589652 -0.5803156 0.3338397 0.54571074 -0.057134997 0.4164345 -0.8679951 -1.0751673 0.38858736 -0.19513476 0.25364095 0.20266785 -0.16149746 -0.061682507 -0.8025034 -0.25038278 -0.22598054 0.1350468 0.075862445 0.19396958 -0.8808306 -1.4610939 -0.21519901 -0.044430953 -0.7534826 -0.7825791 -0.24191226 -0.08918051 0.66848445 1.0191541 -0.09012533 1.1037174 -0.96237636 0.46412617 -0.17702906 -0.74617004 0.07760486 -0.28525162 0.111386254 -0.51886445 -0.013664381 0.4567247 0.2558189 0.14906527 1.4795564 0.038758222 0.38351205 0.6444113 0.14335273 0.7380689 0.63606477 -0.08451178 2.1300397 1.07461 0.20927687 -0.5241222 0.6583272 0.46695277 0.30629623 0.19011536 0.32234928 0.88384825 0.121485755 0.90158916 0.6914636 0.09157048
no -0.05831303 0.95720077 0.68228227 0.19475944 -0.27204898 1.8184285 0.1315636 0.6764697 0.918369 -0.3191056 0.42157373 0.20722288 -0.3745516 0.26644963 1.3735477 -0.38600788 -0.80775577 0.3941786 -0.70163244 -1.3318667 -0.1912286 -0.26246166 0.73975295 -0.21680313 0.42322803 0.9606232 0.74330837 -0.6730637 -0.77045584 -0.91112334 0.11570912 -0.52226853 0.8617775 -0.7974099 0.6922948 0.23100965 0.97627807 -0.43030947 -0.07174086 -0.39311278 0.85407996 0.15842849 -0.45739833 0.13526283 -0.34029943 -0.32742286 -0.14883856 -0.979229 -0.14510998 -0.5749227 0.016610676 -0.006204288 0.1857401 -0.6150592 -0.37815645 -0.098341644 0.14339915 -0.6077066 0.30112538 0.05922033 0.0373232 0.08899487 -1.143763 0.24434854 -0.54299134 -0.47329333 0.5170364 0.09681829 0.9428577 -1.0277315 -0.12526256 -0.6196135 -0.35756207 -0.15144695 2.153452 -0.7870089 1.1016766 0.6056137 0.7030915 -0.7053837 -0.5532498 -0.0046010446 -0.39379382 0.124928296 -1.6565894 0.30532938 1.6324351 0.9183668 0.4572852 -0.23300098 0.17090611 -0.14081962 -0.91808265 0.12070695 -0.352192 0.35049582 -1.6648667 0.14498231 0.24198271 0.42936513
just 0.3451728 0.22426105 -0.2377149 -0.22036871 0.5839461 0.22562318 0.18249987 -0.45137864 -0.039218064 0.5537906 -0.04295481 -1.4778084 -0.089360446 -0.16604333 -0.031528346 0.26935208 0.35525778 0.40317872 0.77786076 -0.6839843 0.23485616 -0.6090362 0.1608568 0.27324045 -0.5726247 0.72365725 -0.6837782 -0.6810423 1.595089 0.056737576 -0.6458662 0.3687426 0.23577842 -0.19498542 -1.6549846 -0.4872104 0.29233053 0.7046931 1.0834416 0.28497288 -0.19545874 -0.3534592 0.35811293 0.7480516 0.44704428 0.4407755 -0.61664224 -1.2747653 0.52924156 -0.20139192 -0.11617795 -0.0691392 -0.065506175 -0.26886317 -0.11638868 0.43479446 -0.5192773 0.15161042 0.71423924 -1.648546 -0.4827987 0.6271703 -0.4981235 -0.44514665 0.21479625 0.23962225 0.44627383 -0.6493017 -0.23298469 0.61431396 1.2102149 0.061522547 -0.17392589 -0.35122713 0.16286707 0.41718027 -1.683997 -0.6187967 1.903366 0.23191844 0.39531097 -0.3305358 -0.11548813 -0.10812066 0.34162024 -0.21407363 -0.1814854 -0.4653616 -0.085659645 0.1681677 0.21304198 0.13160908 -0.910732 0.5095201 0.09264993 0.56250393 0.28818917 0.0057090176 0.1651117 0.1364113
about -0.40198222 -0.08968123 -0.22610278 0.59343857 -0.15811001 0.40885374 1.1741064 -0.025263665 -0.16463375 0.4618285 0.46369213 -0.58621925 -1.0485187 -0.65456206 -0.9492565 0.41837534 -0.17369576 -0.29247656 0.55688226 0.24787249 0.5181714 0.63083935 -0.47089386 1.082722 0.7425208 -0.024877891 -0.32261285 1.162924 0.13734129 -1.6348919 -1.0767941 0.6166561 -0.23040666 -0.90656596 0.3189235 -0.06766032 1.0390899 -0.19600967 0.48308507 1.3995702 -0.40984395 -0.0032025704 -0.55241764 0.6777802 1.1089653 0.49314603 0.8733908 -0.77298236 -1.165479 0.54682857 0.24294776 -0.075371675 -0.6967158 -0.2084223 -0.31395504 -0.047526218 0.17653571 -0.26544657 0.52830464 -1.2276025 1.5443047 1.0713857 -0.22005914 -0.060346905 0.3494327 -0.017222788 0.3086478 -2.2014356 0.5629582 0.40345296 0.2717436 0.18165213 0.72907215 0.23021282 0.35684264 0.32009348 0.5521109 0.87138045 0.36875466 0.0057284296 0.1648939 1.1520598 0.10888474 -0.16208263 -2.167268 0.6185694 0.8681664 1.175368 0.4382198 0.37913543 -1.5224806 0.19266687 0.16240937 -0.099330045 0.109629296 -1.2560668 0.44014788 -0.05474193 1.3271658 -0.25102335
were 0.8443139 0.8698197 0.31284606 0.2891827 0.048025247 0.24745591 -0.27561954 0.21452059 0.7939294 1.3463408 0.77105093 -0.18123823 0.8342984 -1.1304203 0.23233676 0.18407297 2.156916 0.12222346 1.9766179 0.28988725 1.3192149 0.18463616 -0.27670756 1.1271341 0.3583768 -0.4738637 0.22718677 1.1544836 0.063829 -0.44421872 0.6782926 0.2807115 -0.70539314 -0.11008209 0.80786437 1.219666 -0.63447994 0.41714135 0.29939398 -0.21004476 0.60598797 0.13728538 0.1647395 1.4589479 0.24964814 -0.25679952 0.3876258 -0.55961305 -1.0267628 -0.24944274 0.019043295 0.27924964 -0.6373407 -0.09071152 0.4596414 -0.11255769 -2.0401537 -0.20112483 0.17765914 -0.7859896 -0.40528566 0.6659209 -1.2311622 0.11073701 0.5030042 2.443124 0.66389096 -0.09833424 -0.02681628 -0.36414137 0.59904796 -0.49458903 -0.23132868 -0.011474129 -1.0738101 -0.26085186 -0.28876334 -0.06019512 -0.13133903 -1.4910527 -0.53342295 -0.38360217 -2.5195904 -0.96076894 0.42524958 0.336163 -0.8093889 0.41569808 -1.3384454 0.30161238 -1.540917 -0.2761462 0.85372585 0.63437533 -0.3024691 -1.10024 -0.11023682 0.68485355 0.6325752 -0.43604562
so 0.25207546 0.28362888 0.5124551 0.7081505 1.5987886 0.34564477 -0.8562898 -0.41090998 -0.068015136 0.10845502 -1.1284169 0.69745946 -0.60733503 0.6953066 -0.3523634 -0.20843884 -0.20553683 -0.07710931 0.21862388 0.3388856 0.38836274 0.56254613 0.8971259 0.6674119 -0.52747124 0.22504526 -0.47647533 -0.34592694 -0.22028686 -0.682284 -1.3460362 -1.0666294 -0.669735 -0.51245385 0.22026484 -0.43442068 -0.22947998 -1.1169778 -0.84230274 -0.37057832 -0.6035177 1.2232485 -0.055209976 -0.07649067 0.62674725 -0.010553756 -0.5958133 -0.67468166 -1.2479148 -0.46172073 -1.2517378 -0.27317938 -0.22979043 -0.22044298 0.06492562 -0.42331997 -0.26626554 0.41200167 -0.4827251 0.40124866 0.32280976 0.41496536 0.86014414 0.31269416 0.05970845 0.62135834 -0.21794604 0.0873078 0.725808 -0.095537394 -0.26339513 -1.0516738 0.35939157 0.2759202 -0.9832188 0.547301 0.5001855 0.6302687 0.03242243 -0.05666914 0.5252428 -1.3885013 0.58153075 -0.032888316 -0.31157702 0.28645715 0.40542686 -0.2803258 -0.17079188 -0.8725819 -0.35042924 0.47355318 1.0014417 0.9717508 -0.62716115 0.9316447 0.5184949 0.4342905 -0.6413678 0.29130062
want -0.3164277 -0.14264266 -1.402926 0.55748576 -0.425686 0.73506576 -0.6381916 -1.117535 -0.7309713 -0.44103736 0.016506068 0.07563448 0.055199925 -0.9069411 0.28988656 -0.36667988 -0.23373947 0.4741037 -0.15094386 0.21027566 -0.7439743 0.27866772 -1.6202115 -0.20671186 0.009369286 0.2549609 1.216317 0.7457119 -0.13723917 -0.9126276 -0.6237945 -0.3739461 -0.12813804 -0.1410583 0.72572166 0.14369637 0.13232139 0.39912274 -0.3810901 -0.43855715 -0.4406786 -0.78457636 -0.68195873 0.17609501 0.014136567 0.4806015 -0.90738887 -0.4062732 -1.2581935 0.19866201 0.25723064 -0.16934694 -0.48600563 -0.36981276 -0.6945903 -0.15775965 0.73435503 0.054506876 -0.5062584 0.11268504 0.06837168 -0.6060157 -0.7955233 1.4367902 0.5285178 0.5740592 -0.34987086 0.697544 0.6236529 0.06177135 0.6159918 -0.2614889 -0.09268259 -0.29214776 -0.7722953 0.34157735 -0.69947195 0.09465591 0.027687388 0.30469495 0.06778287 -0.5567204 -0.6259994 -0.09466426 0.51570266 0.047077697 0.38183042 0.5684743 0.14362587 0.03766004 0.3895277 0.23273788 -0.46485588 0.23244156 0.22559732 0.56844336 -0.086732686 0.61908615 1.208418 -0.47426733
they 0.07586133 1.1090229 0.12996852 -0.05624193 0.34998095 -0.4679416 0.05853473 -0.2768148 -0.40180483 0.91618526 0.49823925 0.12355003 0.079811856 0.6698507 -0.4020968 -2.3204885 0.001988322 -0.37285632 -0.29899716 0.097777404 -2.0447333 -0.013935245 -0.6940047 0.30086833 0.063322954 0.0146837495 -0.354939 -0.84149444 1.6628006 -0.30054262 -0.42073506 0.041628063 0.20685458 0.6066939 -0.9661968 0.6505068 -0.61293375 -0.49099657 0.3686406 -0.27191156 -0.4278622 0.1628057 -2.4228232 0.8608551 1.39617 0.9961656 0.3488795 -0.5070085 -0.7366167 -0.85337806 -0.9242627 -0.9429696 -0.016730169 1.4867936 0.51773924 -0.9599458 0.28459725 -0.31959897 0.32815927 -0.55736536 1.7464575 0.7053926 0.07494891 0.7090858 0.59794086 -0.3672814 -0.7016879 0.56006354 0.021853868 0.046557184 0.1058969 -0.17866184 0.91039217 0.8636689 -0.65506387 0.007925129 -0.14638656 -0.4989639 1.2138715 -0.61291873 -0.42574832 0.45168766 -0.564388 0.5041029 -2.592967 0.80026627 -0.33861384 -0.21565293 -0.7778951 1.2099841 -1.4788923 0.79629076 0.07418605 -0.18723266 0.40932903 -0.6328601 0.119766325 -0.21068959 -0.17382605 0.053484652
can 0.18198167 0.46463495 -0.09909721 -0.74283504 -0.7037839 0.32266042 -0.4834651 -0.21674205 -0.16600639 0.11032188 0.014471366 -0.64941716 -0.344593 -0.108799726 -0.034533065 -0.39492172 -0.0314263 -0.06369639 0.035910062 0.248185 -0.09354122 0.21224302 -0.09169524 0.15679197 -0.7745084 0.33859944 0.11071 0.6296827 0.8681548 -0.6940232 -0.044651184 -0.077790394 -0.367 -0.14446802 0.69806546 -0.57998246 -0.62738943 0.25818333 0.4521487 0.12019682 -0.42706737 1.2664385 0.7474716 -0.5999341 -0.13699378 -0.8664813 1.7233318 -0.06473597 -1.3084924 -0.14278825 -0.55337447 -0.051874686 0.75514466 -0.44009352 0.48563612 -0.15280868 0.26255664 1.4144995 -0.8301276 0.61130524 -0.24251269 -0.50050926 -0.65798604 -0.45096448 -1.1382061 0.6629859 -1.0039077 0.22573756 -0.069701254 0.0345638 0.4833178 0.4274 -1.1465069 -0.20188475 -0.5380847 -0.0479617 -0.16729943 -0.017683614 -0.463211 0.35040805 0.5790072 1.1429746 0.94554704 -0.85179746 -1.1505554 -3.4265752 -0.038379252 0.63161385 -1.1705525 -0.4236998 0.58214724 -0.48689008 -0.49731907 0.040342495 -0.6172972 -0.22632334 0.8197832 -0.11655642 -0.57687455 -0.8280117
think -0.0025214695 0.678985 0.48326805 0.06352463 -0.17026497 1.1723791 -0.23642321 0.20496319 -0.9019102 -0.35466176 -0.7030598 -0.26075226 -0.75031984 -0.594656 -0.40642405 -0.7640988 0.08875485 -0.4262624 0.6348724 0.4065865 -0.536318 -0.73059535 0.32310128 0.49166092 -1.3936597 -0.46920848 0.35313904 0.085800216 -0.31726876 -0.8426781 0.21405128 0.25181228 0.8732487 0.14962983 0.15326379 0.2723629 -0.273595 1.0940561 -0.81811506 -0.025080817 0.36114356 -0.7434313 0.051682726 -0.6089536 -0.27238807 0.34108207 -0.23037411 -0.0447125 -0.21149057 0.08967815 0.9323077 -0.50155205 -0.45871636 -0.07006264 0.6052994 -0.5025273 0.2985033 -0.59316295 -0.37752664 0.4885348 -0.1935974 0.15347809 0.08163632 -0.32004803 0.20462811 0.045997947 0.45505118 1.0490282 -0.23159479 0.5202588 0.8443196 -1.2179568 -0.05108288 0.7888335 -0.22606333 0.5131755 -0.11756956 -0.12151772 -0.54016656 -0.20371327 0.43215027 -1.5802716 0.91417783 -0.5689885 0.58242035 -0.47946614 0.20512357 -0.30384398 -1.3249613 -0.10433249 0.20950763 -0.35116085 -0.36237788 0.54221964 -0.616809 0.17601416 0.23208179 1.0237321 -0.15409938 0.02971644
up 0.66485983 0.81179327 -0.57784265 -0.11977971 2.454285 0.33497432 -0.46494585 -0.6338092 2.1577458 -0.801405 -0.5867787 -0.46779796 0.6100373 0.968864 -0.8204504 -0.08494192 0.44538748 2.0597115 -0.24626273 0.3012741 0.014995676 -0.6086831 -0.82773226 0.65348 0.3979896 0.3168754 0.27160108 -0.4500868 0.38029608 0.3983361 0.9160126 -0.36568937 -0.4363668 -0.48957658 -0.06966523 0.99959296 -0.4067086 0.12779772 0.7064094 1.487018 -0.01912603 0.034100346 0.31482548 -0.24334942 0.009601953 0.79337627 -0.50244486 -1.0986063 -1.0888495 -0.2698916 0.05479544 0.08818465 -0.004844637 -0.56717736 0.4648063 0.3861189 0.16085015 0.6519227 -0.17428693 -0.39297974 -0.061387874 -1.5718725 0.049609262 -0.28244913 -1.2086613 0.6100004 -0.11986114 0.8654571 -0.07162718 -0.21580447 -1.1297036 -0.70873386 -0.5169396 -0.8357787 0.2323966 0.21560656 0.24753128 0.02756652 1.0706291 0.4389011 -0.9968613 0.09237951 0.23711841 0.19697237 -0.3853966 -0.21994081 -0.8354348 1.0729326 0.3285645 -0.94898295 0.46095982 0.20349474 -0.031933468 0.12012298 -0.16574353 -1.840864 0.3463639 -0.841954 -0.022244565 -0.16868003
its -0.025576005 0.2194496 0.75028485 0.117542654 0.53893626 0.44302714 0.17481242 -2.3476732 0.25424948 -0.3075908 -0.7012635 -1.2737117 0.08242041 -0.371046 -0.49697992 0.75324386 0.29410177 1.6572237 0.011224226 0.7381735 0.58762395 0.16751294 -0.00040359615 1.6793894 -0.46609 -0.75466245 0.5618299 0.96376526 0.8738757 -0.13341174 -0.73934335 -0.3870537 -0.33103865 0.62472516 -0.2912204 1.1250099 0.042564616 -0.38844222 0.58036935 0.064401776 -0.062562145 -0.46882546 -0.658431 -0.21392922 0.6158107 -0.15464284 0.13432135 -0.19280969 0.19315402 -0.25599417 0.25326258 -0.5341865 0.4758523 -0.70914537 0.26024574 0.563064 0.5956174 1.6695703 0.26051924 -0.6607013 0.71218663 -0.0077735116 -0.47408947 0.51164734 0.2675762 -0.014294516 -0.14371279 -0.61168385 0.27453628 0.12222205 -0.3042151 0.8471182 -1.2840312 0.008842079 -0.63204074 0.22193165 0.14399338 -0.16537476 0.7811534 -0.52475995 -0.16954748 0.75590426 -0.24692139 1.868706 1.0661961 0.2440948 -0.7962815 1.5297976 0.37637827 0.30263925 0.20379168 0.14696918 0.24828461 -0.6922751 0.1862666 0.17964344 -0.3919527 1.1994078 0.43502858 -0.6335216
at 0.36185014 0.7744649 -0.48063672 -0.14131546 -1.0964316 -0.29531568 0.4991942 -2.298334 -0.4935524 1.443651 0.5092245 -0.2757687 -0.70118135 0.3528832 -0.6304499 -0.5519319 1.027016 -0.6738886 1.4083244 0.1702423 -0.22337183 0.31115267 -0.45942608 1.9912122 -0.066605546 -0.05987485 0.457366 -0.6866288 -0.29027703 0.5750999 0.5425355 1.7825214 -0.0028983888 -0.6609039 -0.80841285 1.8192384 -0.7401927 0.42143944 -0.4472217 -0.10952593 -0.49190307 -1.3195087 -0.50046545 0.5148465 2.2220225 -0.28735572 0.92660606 -1.0962712 -0.45414937 0.06732549 0.13151878 1.8913385 0.3440471 -0.14819999 -0.70337117 0.09460095 -0.7791058 0.63092 -2.1667867 0.3510557 0.5409059 0.08730257 -0.40221292 -0.073939055 0.18826994 -0.7886318 0.27973446 -0.0076519917 0.08826933 -1.0292863 0.45705572 0.0875827 0.051302303 0.20665266 -0.017278124 -0.051362883 0.7828168 -0.054507144 -0.38700438 -1.4088453 0.53587 0.29498893 0.28452724 0.18106559 0.3223894 -0.65922385 0.09575792 0.36839062 0.51599747 -0.4412678 0.16520548 1.2727482 -0.43756056 -0.82799923 -0.3181099 -1.1614345 0.14273979 -0.93075687 -0.27376863 -0.5907073
how 1.3381795 -1.8241789 -0.24076651 -1.0815904 1.978423 1.4677743 0.36673328 -0.03446147 -0.22199474 -0.28879288 1.0504882 -0.80739975 0.042654287 -0.460036 -0.7009862 -1.290853 0.6857877 -0.27879095 0.039451834 0.38986725 -0.32132703 0.47299448 -1.6473581 0.9309704 0.74080694 -0.11149662 0.12892696 0.8256659 -0.36249 -1.8976061 -0.1426133 0.024774771 0.07262355 -0.2955364 0.24785796 -0.21394007 -0.8326694 0.09268341 0.54765886 -0.6743119 0.6412556 1.2928171 -1.0697236 0.5683889 -0.28515303 -0.19892512 -0.6739529 0.35180125 0.28970736 0.78983647 0.2795388 1.2460595 -1.0972394 1.531583 0.20629287 -0.23574838 -0.0923368 -0.87584555 0.11275522 -0.6399587 1.1078618 0.9050977 0.36870334 -0.16049773 0.4576193 0.038176626 0.6194213 0.7148762 0.14730625 0.7002363 -0.9319933 -0.40404993 0.3715221 0.84490854 0.09734258 -0.6259399 -0.18628104 0.08403561 0.537365 0.32771078 -1.0821155 -0.08211739 -0.26647115 -0.536265 1.2394176 0.33397678 -1.0133039 -0.079306155 0.36478117 -0.563956 0.44143793 0.179697 0.14009856 0.15846138 -1.4560192 -0.19686876 0.46981862 0.067648806 0.4281556 0.28130767
all 0.37540776 -0.7222562 -1.2610154 0.05102763 -0.11332575 0.46333784 1.1808293 -0.089520305 -1.017356 -0.053889535 -0.19032961 -0.106649764 0.82869416 1.0426793 -0.9661208 0.15318616 -0.22812916 -0.19940333 -0.10706834 -0.5332318 -0.18036103 0.026000446 0.8609296 -0.5551132 0.32081386 0.10604859 0.8060823 0.59708965 -0.10055043 0.11427152 0.80095 -1.3353938 -0.45318082 1.0525596 -0.33758327 0.15715647 0.38893563 -0.03919189 1.5864874 -0.21422601 0.12388791 0.50416225 0.07414459 -0.14999421 -0.19102064 0.5360588 0.854764 -0.2871214 0.4453398 0.12232867 0.18198155 0.35295564 -0.7408653 -0.05455022 0.901284 -1.1049671 -0.05588923 -0.23708972 0.21110693 0.07196204 -0.056812707 -0.3527172 0.0044998713 -0.72731537 0.39616984 -0.09870106 -1.0300477 -0.8186077 -0.75164783 0.16410062 -0.3224934 -1.2560972 -0.51911545 -0.92943704 -0.119935304 0.29221034 0.9076235 -0.21486829 0.2697584 -0.51362073 -0.9642474 -0.3292061 -0.65591466 0.121515095 0.875559 0.306584 0.6096738 -0.017459221 -0.4825537 -0.78872275 -0.58732855 -0.64065504 0.37328252 0.49953833 -0.538627 -0.022366107 0.13725655 -1.0158719 -0.5062651 0.020365693
him 0.15742214 -1.1018617 -0.018086959 -1.3746003 -0.0748461 -0.02001189 -0.6148778 0.7336972 0.37626582 -0.038805213 1.623679 -0.26677412 0.9758231 2.0578058 0.6119082 -0.48655125 0.72675157 -0.6725606 0.55813485 0.23731747 -0.062466405 0.75936973 0.18625547 0.9234817 0.36016116 -0.80014056 -0.07101397 -0.4983374 1.1088837 -0.294715 -1.0667876 -0.08818543 -0.019280456 1.005248 -0.0035370085 -0.16533224 0.9130522 -0.50456303 -0.34847128 -0.14702475 0.63518703 1.1223876 -0.56386614 -0.9642092 0.36000264 -0.3947669 -0.43184668 -0.029538345 -0.5561106 0.53242064 0.98576355 0.5905455 0.35605994 -0.21936728 0.45159167 -0.29979295 -0.22368234 0.1965944 0.81302524 0.5942457 -0.5000701 -0.86802864 0.5991884 -0.35023135 -0.63438606 -0.4531374 1.389614 0.18896432 -0.21924022 0.009247401 -0.04700393 0.10102515 0.42385522 0.40441254 -1.3444549 -0.4405299 0.099449866 1.2515774 1.4558043 -0.7391657 0.0058323364 0.31394434 -0.28703117 0.59378463 0.5209929 -1.8109173 -0.9089309 0.27836284 -0.48721954 -0.27938083 -1.0294973 0.58289003 0.22962746 0.28232417 1.2473153 0.53276676 0.25958014 -0.34963572 -0.014863308 -0.17601997
here 0.1870617 0.5385523 -2.4538195 -0.31056464 0.19269817 -0.30183983 0.09356732 -0.74123466 -0.16145606 0.76502305 1.3185521 0.6826126 0.12642124 -0.2667359 -0.73512185 -0.98113567 0.9625528 -0.9608975 0.19388726 -0.2935711 -0.06561605 -0.5336504 -0.15012348 0.15784407 0.25461012 -0.13096535 0.4959451 0.23660913 0.39356497 -0.23506686 0.4100454 -0.5491879 0.4631272 -0.7336806 -0.6618578 0.66420156 0.79556143 0.16283888 0.2071464 0.47139505 0.5485238 -0.045983225 0.4891697 -0.13264415 0.040631317 -0.47519743 0.74088657 -0.28679103 -0.23817433 -0.62040263 -0.0827558 -1.0722723 0.109126836 0.66392916 -0.2528855 -0.6988388 0.6247228 0.13735032 -0.83923084 -1.4018724 0.7488897 -0.14066899 0.19278288 0.45966178 -0.5893406 -0.18161628 0.05487388 0.9030338 0.12589113 -0.96556777 -0.78599596 -0.37514266 -0.4153143 -0.4187352 1.241707 0.39938644 0.82398564 0.9264964 0.19014019 0.7946667 0.49015895 0.21001036 0.4348623 0.5396318 0.3149239 0.025879795 -0.18014205 1.1768107 -0.0876872 -0.35863662 -0.52900386 -0.36014003 1.2206174 -0.80663013 -0.5633352 0.39748648 0.5081404 -0.7031847 0.27171427 -0.17643352
got 1.1363878 0.72735566 1.4588686 0.9294616 1.3549875 0.010336376 1.5528408 -0.5328354 0.82192683 -0.9163471 -0.27517515 -0.8447818 0.88045686 -0.56113726 0.4071113 0.11413381 -0.5379687 -0.037275042 -0.6531965 -0.3393755 -0.022954535 0.53792346 -0.8353469 0.7120597 -1.8695079 -0.4231086 -0.5708945 -1.1529989 -0.31915355 -0.50089115 -0.31823865 0.7682189 0.039169673 -0.6874191 0.32030568 -0.08479555 0.16040471 0.46514034 0.00809266 0.08472891 0.5963166 1.4814367 -0.8173341 -0.8921915 -0.37903357 -0.05304669 0.7226673 -0.47832307 -1.9632496 -0.7117706 0.8439477 -0.2073421 -0.84283334 -0.2164748 -0.28053135 0.3614611 -1.4313669 0.33559993 -0.45987248 0.046866875 -0.8169634 -0.02529327 -1.5338144 0.55089754 -0.4404589 -0.52538174 -0.7148785 0.19663002 0.26352695 0.05655905 0.79155666 0.10050232 0.45626426 -0.49626324 -0.10984182 0.29557544 -0.019701734 0.114967525 0.18945228 -1.5929906 0.68151826 0.43506727 -0.27830872 -0.48743504 0.6734229 -0.2910547 -0.17838107 1.0706444 -0.17010736 0.009984118 0.6141425 0.008294093 -0.42599356 -0.6796377 0.6154616 0.023660218 0.49330485 1.3591932 1.3531862 -0.9161457
well -0.62709236 -0.39520627 1.1100582 -0.811459 -1.1884916 -0.4747394 -0.20275669 0.5744034 0.43955296 0.59953743 -0.32950595 0.59086823 -0.71188456 -0.50601125 -0.37637362 -1.5142926 0.03413979 -0.50050557 -0.50298107 -0.051192943 0.24715964 -0.068384014 0.49015468 0.22862151 0.06311874 0.11292439 0.24281983 0.46742833 0.6463372 -0.7969255 -0.7507617 -0.4179911 -0.510887 1.060033 0.74317825 -0.12101796 0.1361274 -0.040583145 0.21855132 1.1752664 0.3597107 0.5383548 0.7319843 1.6318107 0.52012205 -0.067735724 -0.37360027 0.50526124 -0.13639888 0.421626 -1.8531004 -0.34172532 -0.52634805 -0.41020522 0.3912619 -0.016067473 0.82129866 -0.7289116 0.72638613 -0.37122336 -0.48178285 -0.61621076 -0.8797545 -0.41447094 -0.27355367 0.20590323 -0.2063174 0.06292929 -0.4541003 0.5922795 0.07369203 -0.23283765 0.23570582 -0.17433849 -0.5481661 0.3264384 0.3496628 0.21684948 -0.78694606 -1.6692591 -0.21526238 -0.22717266 0.5898011 0.63486195 0.6548565 0.30781654 0.7605619 0.0013922674 -0.63465565 -0.45937428 -1.2210461 -0.044188395 -0.4790449 -0.13990407 0.38475475 0.30708763 -0.8690746 -0.24681428 -0.9006141 -0.7141847
now -0.6892262 0.7595547 -0.42741993 -0.09951211 0.4704401 -0.410854 1.2595131 -0.017844314 1.0002635 -0.32205242 -0.46118814 0.5664089 0.06134304 1.2949159 -0.9432639 -0.61991864 -0.32743907 -0.7643852 -0.026519714 -0.22420219 -0.29968154 -0.076451406 0.067351036 0.66229814 1.1386952 -0.502412 -0.94367635 -0.2708601 -0.76316255 0.48193425 -0.91379446 -0.13733968 -0.40070847 -0.29456586 0.6878368 0.91144717 -0.059529077 0.014309055 -0.064884596 0.7079427 1.6342158 0.26019907 -0.3147659 -0.34025335 -0.9851171 0.23335183 -0.09411291 -0.44339594 0.2985102 0.45897582 -0.40561643 0.5937883 -0.13095154 0.5577484 -0.50611323 1.1765312 0.29379308 -0.61326015 0.22682695 -0.85830355 0.6931199 0.11383067 -0.34132886 0.06329039 1.123832 0.21800783 -0.3365639 -0.006193714 0.026940024 -0.09224858 0.54358053 0.6129333 -0.30284727 -0.2642928 -0.16984367 0.22128166 -0.84550214 1.0856328 -0.03759339 -0.010165888 -1.4602178 0.08881557 -0.46311852 0.24933176 1.1848903 0.25916168 0.19891658 -0.14505285 -1.1265044 0.8652953 0.5183424 -0.60510397 0.02664289 0.279169 -0.70993793 0.55179244 0.19388075 0.07431003 1.0961697 1.0663166
she 0.76861453 -0.31977597 -0.42071167 -0.5125312 0.23510392 0.33226153 0.8280431 -1.6654487 1.6359618 -0.6583764 0.029301258 0.55102205 -0.18738177 -0.115769096 1.7735994 0.736188 0.03493143 0.0403165 -0.11316375 -0.08343121 0.61656237 -0.08668589 -1.0927188 -0.52255017 0.17831856 0.15705392 0.35564923 0.049162548 -0.35381475 0.20485239 0.004841895 -0.2722633 1.0062567 0.12892699 -0.7920378 -0.72336704 -0.6921122 -0.99865764 0.82804346 0.72063106 -0.24367955 1.6135955 -0.26330197 0.06634256 -0.3618677 0.8779916 0.49091578 1.1462204 -0.05036531 -0.44082266 -0.31002373 -0.71872354 -1.009063 0.12299292 -0.010381287 0.25101763 0.6541667 -0.21467376 0.56620234 -2.1781924 -0.012310678 1.1631123 0.55987126 0.16200677 -1.0958745 0.19484966 0.24149442 -0.9726273 0.49770564 0.4730433 0.14768387 -0.4581142 0.18441474 -0.055499144 -0.17932393 0.16532353 -0.4224705 -0.103320986 1.8388048 0.1723938 -0.1008203 0.21931612 -0.5577695 -0.47470567 0.27443898 -1.1598954 -0.8468143 -0.047205653 0.73345035 0.0106938295 -2.4759371 -0.4678169 0.31577966 0.4932445 -0.71164846 -0.34530336 0.084178165 -0.39321655 -0.5016657 0.45493713
say -0.0016427862 -0.10690586 -0.889517 -0.3920367 0.58339095 -0.4887371 -0.026263542 0.09351311 0.6294742 -0.0884426 1.0676391 -0.41942218 0.7361713 -0.23187883 1.0437548 -0.7787963 -0.38276437 -0.047108594 -0.3070169 -0.23326436 -0.2060071 -0.5578356 -0.56096476 1.2209091 0.31056347 0.9294563 1.2182554 0.47991845 -0.6736399 -0.5166472 0.62240756 -0.09848879 -0.121983804 -0.28528896 -0.13594541 -0.69638604 0.16644102 0.21905509 -0.7078058 0.7098874 -0.22165367 -0.68648815 0.08730837 -0.5801166 -0.15884721 0.31215295 0.3551061 -0.74517787 -0.44653586 0.5125783 0.16220169 -0.36765617 -0.47112468 -0.9653493 0.08591007 -0.68709123 0.65710974 -0.7861512 -0.09611644 0.2169352 -0.23212376 0.5848079 -0.9771199 0.42023608 0.0788177 0.20848256 0.18384004 0.388098 0.67924976 0.06086224 0.73524034 0.26331767 0.16194129 -0.87216294 0.1972239 0.33970517 -1.248236 0.089403994 1.1099027 0.5124265 0.49203947 -0.5566095 -0.47445154 0.1703066 0.7749776 0.35834002 0.28156742 0.19200042 0.018642535 0.56615263 -0.27005544 -0.4169076 -0.81296116 -0.10408106 -0.09919689 0.57818085 -0.5077015 0.08282992 0.7735374 -0.10236085
who 0.40491223 0.023293266 -0.03746053 0.5924496 -0.42624405 1.0576087 -0.28519383 -1.0007055 0.097619355 -0.0066519803 -0.46965238 0.47237244 -0.9885279 -0.41093448 -0.48735613 0.049516983 0.21955521 0.4260654 0.0040520453 -0.024704523 -0.39525053 0.27402943 -0.2203669 -0.39078248 -0.31771415 0.03502574 -0.049821664 0.39948407 1.854629 -0.17168528 -0.15224919 -0.5586067 1.62145 0.9010387 -0.29729083 -0.31769633 -0.2521487 -0.27663982 -0.62249273 -0.32050675 0.17934531 0.6804289 -0.4521369 0.5829607 0.055199612 1.3039083 1.0505894 1.0410651 1.2574719 1.3456134 -1.1573901 -0.9372166 0.35684487 0.9259169 0.69565684 -0.23030391 0.054287363 -0.61252934 0.09044727 -0.8323151 -0.08268086 0.033171248 0.096930444 -0.6395582 -0.11896807 1.0030174 0.038538333 0.8730198 -0.34539255 0.062390007 0.08016973 -0.9446496 0.3534989 -0.453327 -0.5342517 0.22382034 0.20255294 -0.34563926 0.6886865 0.1446242 0.048174564 -0.687957 0.93027234 -0.78490704 0.5429616 0.4154034 -0.6173352 -0.5780468 -0.17554122 0.14642115 0.14271033 0.23467895 0.2040778 -0.4233225 0.20161785 0.1909327 0.73720294 0.56852967 0.36617878 0.019742629
there 0.74566954 0.7192123 0.42874405 -0.32300586 -0.34438783 0.41996974 0.14616004 0.18867008 -1.0319645 0.9033181 0.8619745 0.43829387 0.08221332 -0.32542008 -0.56350386 -0.40460387 0.047165457 1.1854423 -0.77956957 -0.46811417 0.08764965 -0.17132325 0.7096823 -0.029226389 -0.29210952 0.5574617 0.92195576 -0.535236 0.15952525 -0.5071018 -1.1611233 1.1575593 -0.30721876 0.453674 -0.35525328 1.6341208 -0.45002675 -1.1305308 0.44879767 -0.16696854 -0.9458778 1.2167232 -0.018332485 -0.05813793 0.7854766 -0.572716 0.6175208 -0.57594305 -0.17311811 1.5063306 -0.06136248 0.2810792 -0.055560254 0.88880587 -0.31131807 -0.99148613 0.022947922 1.1632185 -0.58399117 0.04768474 -0.5272849 -0.1523209 -0.046563383 0.40867 -0.80455655 -0.05243161 0.17771237 -0.007669065 -0.5864909 0.5904304 1.6484195 0.034263402 0.4086487 0.1920045 -0.40160114 0.27748206 0.009624528 -0.01279616 0.5228783 0.65869546 -0.6290843 -0.390968 -0.48677883 0.24187234 0.061668996 -0.41649878 -0.18144852 -0.2868527 0.12610593 -1.1734731 0.3486438 -1.0822606 -0.77901834 -2.1056411 -1.3893726 -1.0867103 0.70892704 1.2050515 -0.104419105 0.75111246
cant -0.3531771 -1.3330808 0.04412128 -0.055374015 0.060659684 -0.08342211 -0.4890027 -0.45950785 1.296286 -0.29868436 -0.1524686 -0.35774648 0.12715837 -4.3136886e-05 -0.4452769 0.019033575 -0.31965393 0.0042333445 -0.17750889 -0.06334158 -0.53549975 0.17721595 0.05734091 -0.8454294 -0.9029254 -0.15500987 0.8855779 -1.1935736 0.7797054 -1.5839258 -0.9975399 0.191397 -1.0786468 0.3765695 0.45316905 -0.34327137 -0.17362235 -0.12525764 0.36438057 0.601376 0.2029781 0.02975277 0.2919101 1.448869 -0.14158103 0.39649507 0.22702585 0.6234919 -1.4157275 0.48471418 0.33042258 -0.3369797 -0.117514856 0.74333537 0.12692596 0.13067222 1.3533368 0.41255024 -0.07663011 0.64992434 -0.31793544 -0.8193205 0.4738046 0.521281 -0.725131 0.29825476 -1.2033135 0.13241845 -0.050540734 -0.746756 0.88011223 1.3798479 -0.35133603 -0.14846149 -0.92863685 -0.29564214 0.37149572 0.82135403 -0.5511253 0.31350103 -0.73799753 -0.109702654 0.46136454 -0.6849215 0.8805513 -2.5684516 -0.0810128 0.29586157 -1.6449479 -0.3562577 0.055379312 0.30266902 -0.27926347 -0.85741377 -0.52579844 -0.2674253 0.024278278 1.0116411 -0.13234746 0.070403785
thats 0.7638645 0.61583585 0.04215117 -0.030457903 -0.3053303 -0.4023463 0.553577 0.2963095 -0.041663352 0.7675711 0.5065905 0.7744068 0.33506212 2.2899706 -0.3724325 -0.7884508 0.5038888 0.28105298 0.07689824 0.62558955 -0.87002534 0.45052534 -0.9542608 -0.9153534 -0.5651344 0.7384726 -0.54268205 -0.020534249 0.5609024 -1.049651 0.035928797 -0.72802734 -0.08341495 -0.15625247 0.35482797 1.6546574 0.093189344 -0.7378986 0.48499066 -0.9238557 -0.6724664 0.017458757 0.116059095 -0.4540075 -0.7370577 -0.0085523 0.24661687 -0.30263352 -2.268753 0.09769536 -0.2659073 -0.5511879 0.16585183 -0.25206932 -0.10384324 -0.49612233 0.044465095 -0.4486462 0.13807024 -0.096176066 0.28806314 0.6854953 -1.1627512 -0.33889553 0.39613262 2.5978878 0.57662016 -0.32358694 0.18542892 0.40245327 0.5125055 0.28727072 -0.75087625 0.0670588 1.342982 0.82796305 0.4519347 0.07539385 0.55957186 -1.1462873 -1.2538218 0.02251573 -0.15864982 0.37294617 0.6167759 -0.09111853 -0.6309425 1.3610945 1.398231 0.23367992 -0.10070622 1.724368 1.6338814 0.2657644 -1.348247 -0.040510934 0.905598 0.8091327 0.15651183 -1.8917843
one 0.18192281 0.5987853 -0.1883129 0.055978455 -0.5465016 0.25667268 1.3508248 0.4227395 0.89086825 0.50066465 0.081119515 0.73985934 -0.3531568 -1.3955674 1.7720375 0.111407116 0.30369347 0.36830714 -0.32629794 -0.15226015 0.10091326 0.917221 0.32443014 0.08979058 -0.72373676 -0.6474733 0.54437536 -0.014586767 1.9195776 -0.17886728 0.5327882 0.067291066 0.09187549 0.18541253 -1.776581 0.46677905 -0.34795204 -0.772391 -0.12108536 0.009465197 -0.9699409 0.13758402 0.11492247 0.625677 0.9401885 0.9796839 0.4493682 0.08171423 0.035095856 0.6853659 0.45219386 0.18335652 -0.05073201 0.78599936 -0.12860647 0.7996089 -0.023606217 0.25243813 -0.10754442 0.011210601 -0.07504438 -1.0667734 -1.1165575 -0.09386889 0.71463853 0.030073654 0.40089712 -0.045118578 1.0269449 -1.1816142 -0.6397256 0.49255902 0.20880559 1.0086273 -0.3475678 0.5215442 0.058002755 0.58318335 0.55781806 1.0381472 -0.35229784 0.16487932 -1.223852 -0.5558112 1.4455831 0.5663297 -0.19500624 -0.110399835 0.06402764 -0.51156414 0.58334076 -0.36759388 1.6406583 -0.107614756 0.7226349 -0.62724483 -0.57692724 0.6084048 0.26155692 0.46384063
or 0.40709195 0.48020643 1.4863217 -0.85506546 -0.44265285 0.19002035 0.35975912 -0.54481167 0.2321736 -0.9993747 0.62355596 0.9305503 0.62390757 -0.20813027 0.698047 0.6919151 -0.39412263 0.13505617 -0.3962132 -1.1014272 0.0068393582 -0.6266055 0.16913876 -0.5225455 -0.08861485 1.0941613 -0.64449704 0.33250773 0.8676396 -0.6906289 -1.3761221 0.18860638 0.14307441 0.31635603 0.24982925 0.5186317 -0.4587524 0.3176364 0.7558522 0.12872227 0.6630102 0.037138477 -0.5804465 1.259889 -0.7619776 0.47167608 0.4887502 -0.48779643 -3.1126447 0.33668846 0.697724 -0.14961791 -0.015229615 1.233921 -0.38742962 -0.011501493 -0.98931915 0.17508969 0.67957354 -0.90295506 0.7562183 0.18589129 0.060129732 -1.167116 0.3087184 -0.47368956 -0.1301884 0.8026362 0.47233403 -1.2607374 -0.8432943 0.7286579 -0.38497302 0.46020177 0.8149884 0.57332593 -0.75988847 0.21181981 0.34518862 -0.13076346 -0.5548007 -0.5737303 0.08713703 -0.13435307 -1.9494774 0.14211453 1.2024747 0.283175 -0.36307022 -0.4484283 -0.11132551 -0.7986391 1.6065918 -1.0399221 0.4265612 -2.3251724 -1.0554733 0.08483888 0.15510364 0.16003908
tell 0.43851766 -0.09559796 -1.2092447 -0.80169815 -0.19614406 0.6953832 -0.8545441 -0.32236806 -0.43223208 -0.11562661 -0.8366968 0.90609014 -0.8601755 -0.047041837 0.44265777 0.38541818 1.3405955 0.19068858 0.39445037 -0.65159065 0.36729926 -1.1538998 0.08050151 -0.5972658 -0.24051341 1.0086037 -0.71142894 -0.3885622 -0.04483391 -1.0110828 0.36575454 -0.8721215 0.3570881 -0.508804 0.23501082 -0.7801885 -0.50020075 0.38402385 -0.26741746 0.2317738 0.19651529 0.054243214 -0.94526225 0.012179171 -0.99492973 0.43973845 -0.23382448 -0.31966785 0.32647544 0.2082959 0.27654898 0.21118018 -0.4339287 -1.1673298 0.14484318 -0.709373 -0.8888785 -0.16305287 0.4493713 -0.12334909 0.15271439 -0.40651074 0.5035183 0.6171051 0.5128917 -0.004243261 0.20252798 0.013283913 -0.6990339 0.30974743 0.8776739 0.2549066 0.5603555 -0.23065369 0.1610485 -0.14016223 -0.32194793 0.62359613 0.68511176 -0.10028121 0.72838324 0.053840484 0.2482251 -0.3565956 0.49311733 0.39310378 -0.85554934 0.7275873 0.35539132 0.4422097 0.2160317 0.70895267 -0.89997935 -0.119501784 -1.0168098 0.47657448 0.27327624 0.63634163 1.1527054 -0.7714487
look 0.69592816 0.33664367 -0.45476928 -0.14056695 0.49407542 -0.07662981 0.9519844 0.48317975 -0.634203 -0.21391714 -0.49600634 0.3783851 0.47303167 -0.34794438 -0.3220024 -0.12217102 -0.033414777 -0.28637594 0.07302023 0.1840359 -0.32377934 0.35379195 0.6833373 0.11261825 0.43070117 0.59158075 -0.21329018 -0.06848803 -0.6128761 0.37721574 0.07234944 -0.52546257 0.7409494 -0.078385115 0.8591424 -0.28759086 0.3993569 0.35765648 0.5808458 -0.36562225 0.4053915 0.30236736 0.53560966 -0.03211132 0.19575942 -0.34567702 -0.98981076 -0.19795126 0.10271636 -0.13383764 0.72192436 -0.4598162 0.66094893 -0.49355808 -0.5561964 -0.047729164 0.046708237 -0.22589417 -0.036970597 -0.47847024 0.045716103 -0.5548693 -0.7299389 0.7348353 0.19099468 0.7214025 0.11041557 -1.3092767 -0.53540987 -0.99983126 -0.03513997 -0.8431834 -0.8176288 0.74642044 -0.10678237 0.38177913 -1.0109075 -0.26764056 1.4793742 -0.106814645 0.30851355 0.28260577 -0.32147086 0.048417892 -0.7711126 -0.22102383 -0.23960014 0.64340425 -0.4291304 0.02042269 0.41616327 0.47845733 0.11406831 -0.17579968 -0.064826645 0.17227376 -1.5607488 0.38348073 0.17619339 -0.8550047
never -0.85391045 0.23185165 0.0887012 0.15495157 0.12060506 1.0241375 -0.30881867 -0.26072147 0.23347193 0.31284633 0.51249605 -0.026860127 0.3723331 1.0622966 1.2028292 0.33483762 -0.6910846 -0.26585498 0.83834606 -0.8016926 -0.99548453 -0.09188206 -0.23385708 0.8298652 -0.22907795 -1.0068289 0.04039099 -0.30006373 -0.096202664 0.50241005 -0.8259222 -0.08604689 -0.11344553 0.25939944 -0.71929634 0.24020565 -0.7228291 -0.6026769 -1.0844338 -0.41245466 -0.11316116 0.090704724 0.040318426 -0.14462209 -0.90155756 -0.22646172 -1.0498686 0.39391848 -0.7019105 0.26367003 0.33045188 -0.9216876 0.71042997 0.4879706 0.9434237 -2.085007 0.43657348 -0.29993108 -0.20409101 -0.5767896 0.62997437 -1.0894982 -1.2422421 -0.96304506 -0.4071596 0.758488 0.041829944 -0.6727866 0.49575287 -0.61844873 -0.0055912645 -1.2166706 0.33277857 0.06579309 0.33213738 -0.3175072 -0.058517326 0.49754795 0.0909328 0.1420466 0.45415235 -0.5415393 -1.4415706 -0.86026675 -0.12558056 0.035426736 -0.5646708 0.32385758 0.32528934 -0.022805264 0.3263133 1.3248992 0.23200156 0.379668 0.25556573 0.18187565 -1.6188602 0.8292347 0.33052537 -0.66709113
when -0.4417294 0.12194181 -0.24169643 0.35282984 -0.57291406 0.093585104 -0.14423478 -0.12383937 -0.34185338 0.22050805 -0.71468955 0.17680122 0.46483427 0.50809574 0.9274251 -0.99156165 0.15529856 -0.5059688 1.1670084 -0.31327865 0.49173218 0.53357625 0.32422256 -0.9668663 -0.5621765 0.46432614 0.30552894 -1.3690203 0.06382578 -0.028593197 -0.527691 0.13365546 0.87176794 -0.24790622 -1.4607877 -0.14169067 -0.012252815 -0.2678277 0.32648107 0.44211936 -0.86563295 -0.38088462 0.9049234 -0.02239984 1.0471504 -0.44735104 -0.20963582 0.22339512 -0.64540046 0.4878052 1.0671197 0.36119395 0.28799644 0.40645435 0.8097693 0.5223249 -0.5176677 0.34009475 -0.11789327 0.23151392 0.7339242 -0.5975872 0.5104373 0.04893569 0.2844496 -0.39924732 0.042956278 0.2860268 0.32990518 0.36305386 -0.21257542 -0.43905064 0.028653976 -0.5615375 0.29583424 -0.22989109 -0.34488246 -0.08967638 -0.5140317 -0.007905921 0.2173219 -0.2055993 -0.37160662 0.03776244 -0.90881574 0.15193698 -0.8618356 -0.047626242 -0.52943885 0.044658154 0.82246625 -0.616282 1.0348017 0.5422805 -1.2041945 0.055617712 0.6585628 -0.7278765 0.19874291 -0.6961982
did 0.9209734 0.6259373 -0.032393657 0.84652984 -1.2641469 -0.8717492 -0.44138858 0.28256607 -0.1039755 0.37550908 0.19582874 0.430541 -0.42516378 -0.45511094 0.34665483 -0.17948747 0.29638696 -0.39551303 0.47630405 0.021782521 -0.6547766 0.34517592 -0.6137735 0.52668214 -1.0631641 0.2255737 0.16730909 0.46527693 -0.16302265 -1.684327 0.2111913 -0.6898861 -0.8582133 -0.60168904 0.40108928 -0.84223974 0.13356589 0.46155542 0.101329125 0.048800796 0.32195902 0.14103003 0.43638113 -1.1921972 0.3576186 -0.39498833 -0.20855394 0.24328262 -1.2739495 0.24706364 -0.6241949 -0.2363995 0.48498234 -0.11135335 -0.13530423 0.34226474 0.5099651 -0.3758625 0.6018406 0.20692575 1.0546657 0.34478822 -1.3030174 0.16926193 -0.0486909 1.4281684 -0.56474835 -0.19124031 -0.4705679 -0.0038407217 0.7262188 1.4178766 -0.5353623 -0.84378016 0.12517269 0.71647877 -0.08613245 0.01816765 -0.12451646 0.33414984 0.048228502 0.6087273 0.0069427644 -0.042925537 0.31453955 0.07742486 -0.62023574 0.050722554 -0.2876172 -0.79264545 -0.13978139 1.2843372 0.19702028 -0.62224394 0.28290865 0.5539545 0.6541999 -0.38826376 0.07973228 -0.55206066
right 0.5359711 0.006751282 0.17063363 0.5016523 -0.04557968 0.45382106 0.11042702 0.43145213 0.511497 0.90202665 -1.4281967 -0.9283873 -0.60487336 0.20082167 -0.31258944 0.22471133 0.16677944 -0.036835182 1.3613206 0.6498652 -0.025739763 -0.10399885 0.57241917 -0.2281052 -0.21110128 0.63994277 -0.523469 -0.1315594 -0.44943413 -0.1313879 -1.0043586 0.53664577 0.3831212 -0.21376863 0.34780565 0.68801636 -0.039303012 0.067345016 -0.91464907 1.3501561 0.111028515 0.025618533 -0.22553004 -0.11256338 -0.22811593 0.29619226 -1.1851386 0.2367539 0.26116964 -0.4461084 -0.12023934 0.16797653 -0.24010636 -0.23119731 0.84490985 0.74189913 0.310835 1.0949974 -0.1839706 0.33484557 0.062342603 -1.6403366 -0.5075901 -0.48034617 -0.38429382 -0.09346402 -0.32234254 0.010962395 -0.80997676 -1.6702216 -0.6760014 -0.928631 0.8120105 0.3991421 -0.5700119 -0.5658425 -0.19763465 0.64850163 -0.030891957 0.30506426 -0.14153515 -0.3726388 0.5085159 -0.08995167 -0.9269875 -0.21446523 0.21863076 -0.10594209 -1.0754023 0.0034216484 0.3031818 0.07297839 0.41493583 -1.0076433 -0.27027997 0.025451774 -0.3066627 -0.6470819 -0.66172147 0.8722049
as -0.08401278 -0.80357295 -0.8662488 0.80314344 -0.2720488 -0.13432585 -0.8757799 -0.6740003 0.1732693 0.46054766 0.2508955 -1.4531033 -0.03722803 0.4561838 -0.7467357 -0.81017715 0.38301042 -0.08551033 0.41729474 0.083487906 0.009241429 -0.61585057 0.06535255 -0.010360557 0.2579993 0.67717975 -0.10492309 0.53392816 -1.1609628 -0.01913746 -0.971226 -0.02440178 1.3707635 0.089358486 0.3900575 -0.13917983 -0.7022572 -1.601921 0.27380842 1.2849487 1.0864519 0.118090056 0.3184986 -0.0610546 -0.18820387 -0.037050582 -0.8247272 0.3675526 -0.3587509 0.51124287 0.41810864 -0.19190495 -0.018779058 0.7442025 0.071443796 -0.21719246 0.6558878 0.32360834 0.18452507 -0.56281734 0.7062529 0.45403445 -1.0346857 -0.9441638 0.14949608 0.38566986 -1.0017568 -0.5205398 0.69744265 -0.24675676 -0.059287366 0.3479329 -1.7823887 -0.6574019 0.44623378 -0.03630816 0.0065793376 0.16313367 -0.22925413 -0.40624407 -0.22967017 -1.2294263 0.25847828 -0.6392688 -0.80948293 0.521095 -0.111816026 0.1273 -0.2313534 0.6243151 0.74587965 -0.39586106 -0.5601243 0.14386457 -1.0636983 -0.39883542 0.4868477 0.67077714 0.4711696 -0.753501
let 0.09001197 0.35594812 0.9138586 -0.35824364 0.07909321 -0.66238016 0.20519082 0.41878808 -0.49924016 -0.22305647 -0.21318953 0.45579255 -0.85099006 -0.8193783 0.7637829 0.345008 -0.06615393 -0.17103589 -0.50491095 0.379104 0.10141258 -0.014051652 0.08540177 -0.14119059 0.4894366 0.52214825 -0.20467857 -0.92518145 1.7548844 0.23692691 -0.61016744 -0.35622048 0.16277617 -0.1942654 -0.14602643 0.35746872 0.25875646 -0.027949302 0.41114703 1.3705041 0.1530329 -0.057091597 0.018405069 -0.047071677 -0.34131825 -0.39442945 -0.2681424 -0.72945356 -0.27547207 -0.4958515 0.40214095 -0.9512148 0.98377764 0.8018235 -0.10325913 0.53609043 0.16074437 0.023579208 0.10649361 -1.1891168 2.1573884 0.073430814 -0.38485986 0.75641173 0.38249314 -0.09566461 -0.79152024 -1.3063375 -0.19333965 0.4825311 0.8210973 -0.8118627 -0.3163849 -0.49259922 0.057633486 -1.3014399 0.09324121 0.51547307 0.120229006 0.38466784 0.039858606 0.13552257 0.04599102 -0.71572644 0.6212754 -1.5778816 -0.45560113 -0.23073874 0.049303338 -0.71538454 -0.058230884 1.5205382 -0.42408228 -0.139087 -0.6012794 0.8644355 -0.062429413 0.8665014 0.65919715 0.20425716
would -0.9736277 0.4742453 -0.08046102 0.15175885 -0.0619409 -0.050150678 -0.42515048 0.16127314 0.4588923 -0.8866783 0.41953912 -0.14745723 0.16886856 0.38901418 0.08231829 0.43035853 -0.120681904 -0.2692599 0.021304708 0.3747853 -0.10309341 0.40201753 0.15946782 -0.039975088 -0.024532251 -0.18371643 1.2650424 -0.28750923 0.77442324 -0.064836524 0.047079135 -0.515769 0.11954846 0.501561 -0.62137985 0.62263525 0.6658038 -0.027980099 0.17519128 -0.29493165 0.057498444 -0.3699191 0.13257046 0.31257576 -0.25622952 0.37420163 0.66133136 0.5048499 -0.36627832 -0.08895103 -1.7067742 -0.3478764 -0.14994372 0.68167824 -0.1091137 -1.1767266 0.28542432 -0.29213032 0.15213707 0.44704697 0.08380072 0.3090249 -0.88642246 -0.007146104 0.8100087 1.1020973 0.49492282 0.026836706 0.10952715 -0.24109048 0.24207662 0.48300576 -0.796224 -0.32416424 0.13786924 -0.46213356 -1.4320747 -0.76406837 0.98020047 -0.33193365 0.33541092 0.05507029 0.5423059 -0.06937555 -0.3853517 -1.9107888 -0.20191531 0.5556073 -1.8965971 -0.39096218 0.48130947 -0.16081873 0.30983537 -1.508179 0.017964114 0.2397628 0.058517683 0.697711 0.8820746 -0.877059
didnt -0.7612985 -0.834768 0.5079046 -0.060191832 -0.6902062 -0.45278412 -0.14358465 -0.323567 1.2984976 -0.25323623 0.0035390642 -0.747691 0.20083664 -0.12522464 -0.29053208 0.03866326 0.21997027 -0.28656036 0.48538223 -0.15405686 -0.59707385 0.705542 -0.018013353 -0.2772331 -0.5005807 -0.1391461 -0.1019777 0.08210944 -0.88779587 -1.5485152 -0.08741239 -0.036020648 -0.37712178 0.1570132 -0.7393887 -0.66397494 -0.63210243 -0.00875501 0.07774861 0.03936476 -0.1527933 -0.5481276 0.43635628 1.3362174 -0.15700854 0.28123468 0.22006777 0.12675896 -0.031526286 -0.2620509 -0.051919766 -0.4951675 0.97760344 0.3783319 1.2531767 -0.42698845 0.91360646 0.44696003 0.05145179 0.1535736 0.61174643 0.22389805 -1.4321704 0.11790061 0.4090854 -0.05273663 -0.64010406 0.24298011 0.79361516 0.96869963 0.36664554 -0.14747049 0.117081136 -0.58439285 -0.17187767 0.1035774 0.24612206 0.1992456 0.28314748 -0.05786802 0.02267614 -0.21142 -0.017804926 -0.64599663 -0.82291305 -0.94806695 -1.1598083 0.31870878 -0.10339107 -0.6467817 -0.018425334 0.31220254 -0.67053586 -0.63070333 0.21027601 0.11378235 -0.26704648 -0.90652615 1.4444468 0.18147936
his 0.18214732 -1.6297448 -0.23440005 -1.4876933 -0.58904785 0.52621645 0.8186942 -0.8172634 -1.2370303 -0.042310655 1.2062802 0.17797525 -0.58961993 0.3327986 0.4078873 -0.0442383 -0.8428323 1.7083446 0.42924592 -0.77266365 0.33333403 -1.5339168 -0.38178688 0.041452896 0.09365308 -1.941267 0.97418654 -0.9591784 -0.041734844 0.6290748 -1.0481799 0.37638646 -1.1023244 -0.5371384 -1.2607315 -0.57850903 -0.59291404 -0.30462745 0.4268138 -0.27950814 -0.2434486 1.2796538 0.043663945 -0.25770456 -0.403769 -0.7487024 -0.12880038 0.17713806 -0.7129509 0.79995334 -0.42094874 -0.39542973 -0.12789196 -0.23382439 -0.38891476 0.099238925 0.56160367 -0.74108225 -1.253484 -0.99770373 -0.15339458 -1.7737638 -0.7266512 0.03516792 0.92464525 0.70899945 -0.7175686 0.9031307 -0.14054188 0.29887432 -0.015154766 -0.32574663 0.8921393 2.309209 0.49058458 1.09613 0.08111075 -0.01015318 1.9967868 -0.6268473 0.45835614 -0.16438681 -0.051091794 -0.48387915 0.063852385 0.032499485 0.19997184 0.5027418 -0.19564217 0.7005458 -1.3996258 0.4962662 1.1169428 -0.054388445 -0.35791385 -0.23143859 -1.6012986 -0.8237863 -0.010869214 0.7423887
could -0.20380872 -0.004685393 -0.1772995 -0.7286962 -0.63049436 -0.87183464 -0.20643283 0.35712945 -0.41407466 -0.4317075 -0.23581395 -0.5622932 0.39481604 0.07984203 0.43044752 -0.7936988 0.4979469 -1.0461651 0.020187795 1.2849846 0.39917254 0.24250588 -0.015337471 -0.227751 -0.42543516 0.28427815 0.17622767 0.813201 1.8708982 -0.3172273 -0.5965356 -0.05135422 -0.7527804 -0.7970384 0.33097693 -0.012780999 -0.03831628 0.9635027 0.5104065 0.3525402 -0.21607672 -0.015798762 -0.036281943 -0.03403936 0.753527 0.012402259 -0.35745832 0.05583667 -1.1372142 -0.1018164 0.23495582 -0.32846162 1.1185995 -0.14320345 -1.0220453 0.31835857 0.517686 -0.17075391 -0.5282991 -0.12980922 -0.8418554 -0.9488037 -0.25019565 -0.11561907 -0.3802194 1.2974685 0.39899763 0.37393364 -1.5278538 -0.016907584 0.013690378 0.5222015 -0.75604635 -0.858481 -0.28262445 -0.05530379 -0.19281353 0.05280995 -0.37256533 0.7561107 0.9666705 0.09774715 0.2685361 -1.4078342 -0.551574 -1.8220211 0.040421654 0.35876915 -0.53247523 -0.6601866 0.3999858 1.2802796 0.57288855 0.5878145 -1.7238418 -0.3590427 -0.43552178 -0.43137875 -0.38278982 -0.30543742
from -1.1847167 -1.7169465 0.44639215 0.013413072 1.1244917 -0.76186734 -0.030757992 -1.3231001 0.6673739 -0.7174581 -0.26468924 -0.64790016 0.5032115 1.1913924 -0.3848614 0.29907754 -0.37501422 1.0885143 0.7370096 -0.1303381 -1.6991972 -0.8536323 -0.32483265 0.68204814 -0.40493688 0.17507692 0.7540975 0.90620434 0.40073395 -0.7083292 -1.5774505 0.77840513 -0.35324976 1.1562283 0.40483525 0.8258041 0.14212966 0.5446186 -0.6075728 0.19360831 -0.61719733 0.6731084 -0.19032964 0.2238965 0.398094 0.060882073 0.14569642 -1.1042801 0.6691272 -0.45550355 0.4239069 0.8246796 0.1280392 0.56696546 0.9898189 -0.8457527 -0.4559964 -0.2693156 -0.99243915 -0.053065576 -0.0043957736 -1.8785954 0.93729395 0.1318022 -0.36795062 1.4747386 0.8578787 -0.87289727 0.67209846 -1.1406846 1.2107846 -1.1614242 -0.5789847 1.101921 0.8748759 0.39563534 0.32376778 -1.1566206 -0.40183607 0.05839274 -2.1599767 0.52274585 -0.63396746 -0.72169805 -0.2603567 0.23284377 -1.3893207 1.4466144 0.01748207 -0.9136163 -0.6393513 0.9025067 -0.23886748 -0.30547222 0.0070153885 -1.1952897 0.026627913 0.30556026 0.53373975 -0.7903991
take -0.05210119 -0.20537591 -0.50635904 0.65195787 -0.16126263 0.34344834 0.093294024 -0.46284983 0.9921762 0.53457457 0.45134047 0.1915512 -0.010910094 -0.5209573 -0.6202608 0.23091741 -0.78399074 0.5364695 -0.576109 0.3911243 -0.23027784 0.4121783 0.23469989 -0.87256885 0.11793361 0.26558882 1.3153139 -0.39288518 -0.6290674 -0.19261968 0.3618832 0.7088906 0.2993651 -0.7527455 0.22995481 0.1821442 -0.59664214 -0.48205 -0.6304899 -0.61442083 -0.13531849 -0.64934283 -0.39475638 -0.3829201 0.04416785 0.8496934 0.024910774 -0.18804047 -0.47520325 0.37503523 0.93938845 0.49682876 0.13857329 0.2233321 -0.31031173 0.6164198 -0.8331041 -0.4778081 0.38158342 -0.41300774 -0.29539356 -0.6334316 0.24906957 0.1470855 0.59619015 -0.15894853 0.9828762 -0.55667126 -1.4929143 1.1320982 -0.4873744 0.044434983 0.26813722 -0.23163824 0.3716555 -0.29212055 -0.45895365 0.6495759 0.30493745 -0.46491265 0.02204181 -0.5552326 0.34868863 0.5670178 -0.2635871 0.62951374 0.58561516 0.09202734 -0.24364614 -0.17026205 -0.2813259 1.2084751 -0.9496172 0.60264295 0.5411205 -0.3807643 -0.603284 0.31445757 0.7784069 -0.63048905
because 0.06571166 0.86645913 0.30931523 0.19406374 -0.25519526 0.102164105 -0.11262302 0.26048 -0.007514464 -0.012364609 -1.1036239 0.19285218 0.39019594 -0.55749613 -0.74007034 -0.47393313 0.25190634 -0.06425928 -0.09602367 -0.43394688 -0.29986548 0.17016229 -0.2578324 0.43153772 0.38755646 -0.0031816785 0.8797094 -0.44237456 0.3186357 -0.8099765 0.45711234 -0.19100423 0.13159648 -0.1752164 -0.45529336 0.3433112 -0.08835373 0.92597777 0.5127766 -0.52998763 -0.5532602 0.4339017 0.21818265 -0.27346405 0.440505 -0.20226163 -0.60217494 0.41872603 -0.15524733 -0.42594448 0.6798896 -0.61959165 -0.3285168 -0.02175293 0.009448914 0.20014168 -0.34298202 0.29569086 -0.06418617 0.3454731 0.026580635 -0.18236125 -0.606253 0.13748287 0.3098991 -0.3909204 -1.6765478 -0.3054018 -0.12384727 -0.64608353 -0.13999985 -0.55861115 0.8980352 0.106603734 -0.6370953 0.20297578 0.4068944 -1.2559451 0.7467102 -0.15076664 -0.52501565 -0.33069658 1.2012835 0.43952104 -0.48565355 0.7676494 0.43950558 -0.010347386 -0.41164756 -0.16359523 0.23510979 0.0162838 0.5817263 0.25635332 0.12549081 0.84232444 0.016539304 0.7516113 -0.06645702 -0.1388643
ill 0.18270914 0.63110125 -0.29518762 -0.22226498 -0.57021105 0.020888798 -0.9378454 -0.5443729 1.5251079 -0.75020665 0.8001848 -1.1223042 -0.42434603 0.3934447 0.28596613 0.5848289 -0.5974871 -0.07836494 0.30747482 0.52605385 -0.4135949 0.56435025 -0.5546098 0.9923291 1.1883968 -0.80581224 -0.033945523 0.036889773 0.7996943 -1.032514 0.0049726614 -0.6139731 -0.79445505 -0.36826828 -0.80270267 -0.121818274 1.1078862 0.33450586 0.56652945 0.23363887 0.078451134 0.70406777 0.04869066 -0.41660938 -0.7250289 0.20377633 0.26246208 -0.603457 -0.033905458 -0.5542518 0.30661443 -0.6400151 -0.3065098 0.30804145 0.2687012 -0.6131409 -0.0941865 0.20262924 -0.47684476 -0.21801326 -0.08369761 -0.24226235 -1.1950328 -1.1388007 -0.11952435 1.311613 0.45762497 0.35619736 -0.4017591 -0.9302664 -0.32054237 0.38451776 0.31108296 0.14673969 -0.6669904 -1.170286 -1.483399 0.69956654 -0.28120074 -0.07287648 -0.30937538 0.09759573 0.49375367 -0.74217385 -0.0652283 -0.18937817 -0.84351826 0.15454969 0.18566358 0.5671838 -0.4955403 0.031063475 1.3940783 0.2904434 -1.3486277 0.42967525 0.15743175 0.59785545 -0.5853554 0.58987623
will 0.00844824 0.4336326 0.13858424 -0.23964657 -0.6640223 -0.0059107854 -0.39434734 -0.15800627 0.46601495 -0.07115957 0.8571292 -0.6251296 -0.23123635 0.030924728 -0.3139639 0.3547414 0.0788962 -0.28046504 -0.23832156 -0.91034245 -0.8224012 0.5505729 0.91331136 -0.5394374 0.783851 0.0061687347 0.76677656 -0.8944744 0.26613736 -0.71027 -0.040684193 0.013078525 0.1346527 -0.21419306 -0.9916534 0.19182682 0.094432674 0.0769085 0.8504282 0.12250307 0.5688153 0.15265594 -0.08997863 0.62971556 0.057325877 -0.5809986 -0.46161255 0.14905438 -0.71370584 0.08751396 -1.2997836 1.1046404 0.40154296 1.15966 -0.20856585 0.24076147 0.046199456 -0.03851994 0.41222927 0.3432324 -0.6714649 0.8840653 -1.0659548 -0.8636118 0.1980052 0.44436783 -0.67919624 -0.0014285637 -0.24274494 -0.0029270386 0.4175086 1.60607 -0.96101373 0.116078295 -0.12207341 0.23065647 0.09288979 -0.1230508 0.6141465 -0.018570734 -1.0578406 0.34304866 0.4151516 -0.27825308 -0.7144967 -1.3750873 0.5248743 0.17972176 -0.9968315 -0.08324411 0.75609004 0.19173189 -0.1946816 -0.08889312 -0.34908974 0.53293264 -0.11800299 0.27879938 0.3590467 -0.62012357
why 0.41545483 0.61007714 0.5314242 -0.58766544 -0.16076115 0.345537 -0.1870459 -0.5927662 -0.9221682 0.43256953 0.09130224 0.18087576 -1.5999507 0.3024954 0.36330172 -0.42687243 -0.33580378 0.34761053 1.375478 1.0204475 -1.1615841 0.3260819 0.7070957 -0.48080862 -1.0745035 0.49210998 -0.86733407 -0.68945515 -0.43187517 0.4206814 -0.51801956 0.23613967 0.6691704 -0.14531896 0.044434067 -0.35491073 -0.22317658 -0.19373412 0.23106126 -0.39162478 0.67905605 -0.7300356 -1.0960162 -0.7290286 0.42291242 -0.36172214 -0.7940004 1.2517612 -0.1250875 0.50368536 -0.7559844 -0.25877976 -1.1498411 -0.0919164 -1.0105468 -0.84476346 -0.48729604 0.29883105 -0.19306926 -0.76541305 0.19447555 0.40288007 -0.5270886 -0.46744546 0.22307731 0.3081895 0.2908494 0.26885438 -0.7614327 -0.1334304 -0.53376037 0.039008237 0.46169993 0.9212157 0.15443575 0.33203575 -0.022769833 0.28258577 -0.026168287 0.49142212 0.17191854 -1.3842261 -0.29672745 0.39881238 0.7261723 0.68943626 0.2399335 -0.22587757 -0.120843425 0.15633598 1.1834387 -0.40570903 0.7376466 0.56900346 -0.30273595 0.1013736 0.5248304 -0.029659718 -0.07749767 1.2541776
them 0.45253175 -0.16167934 -0.35803038 -0.30614835 0.76625204 -0.21996999 0.30081388 -0.33910424 0.1992632 -0.26977584 0.04701372 -1.7707907 -0.2659798 0.18512951 0.014784502 -0.2777131 -0.61003524 1.0746384 -0.3596931 0.46381462 -0.50673866 -0.34797478 -0.6649603 -0.16170575 0.25678173 0.4025853 0.784118 0.40069786 1.2009267 0.88212895 -0.003965666 -0.3994386 0.82588726 1.4797139 -0.9036183 0.10954093 0.5217946 0.38034812 0.57957006 -0.032843642 -0.62210596 -0.2061526 -0.5216927 0.15117681 -0.14027177 0.8458684 -0.3180079 -0.1571774 0.39278945 -0.10193604 0.73700994 0.39729735 -0.4703182 0.29164672 -0.36471575 0.4336043 -0.21728972 0.33513275 -0.9648779 0.31666207 -0.42299023 -0.4425781 -0.291324 -0.7263584 -0.6915423 -0.4812042 -0.46202826 -0.027472388 -0.56611407 -0.36648646 -0.21113032 -0.4765006 0.57976824 0.13949654 -0.66390854 -0.18666838 0.043183073 0.42737007 1.4074633 0.3167945 0.23294817 -0.44223303 -1.0325137 0.6123964 -0.68564856 -0.85082585 0.29285294 -0.1602868 -0.69643456 -0.52921087 -1.0583649 0.8781387 -0.11987474 0.3322334 0.8351685 0.7698047 0.29923946 0.1609654 -0.20709603 -0.27139032
then 0.16755529 0.27833718 -0.4243715 -0.25360164 0.11269475 -0.667574 -0.45512494 4.1670388e-05 -0.6178459 -0.21501751 -0.64857185 -1.3857847 0.14213535 -0.5712259 0.6243745 0.14214475 -0.09694779 0.24876295 0.3990023 -0.01780095 -0.2672054 -0.29172066 -0.017784553 0.09047802 0.03620517 0.5765606 0.025034934 -1.098398 0.7470994 0.09316114 0.005087862 -0.39106053 -0.8392285 0.20995055 0.3808758 -0.78507274 0.34834203 0.1523198 -1.2439054 -0.010635491 0.8989 -0.21536668 -0.3145888 0.046514034 0.50349224 0.095696986 0.4324732 0.52800095 -0.54743576 -0.2844944 -0.9075622 0.09384064 0.118525445 0.39818996 0.10829474 -1.1836467 0.015638068 -0.22252798 -0.74636984 -0.80331534 0.011904464 -0.4845352 -0.042116817 -0.35267234 0.6299103 0.51345485 0.090448625 0.12634228 0.10007474 -1.2644649 0.67472255 1.3955594 0.22057031 -0.60432017 -0.57943296 -0.5628957 -0.49308783 0.84290916 0.43755 0.13178422 -0.8068963 -0.43844017 -0.4139318 0.4523931 0.15537518 0.8228884 0.2671799 0.21849474 0.16546479 0.6278406 0.80834574 0.23528509 -0.13120513 0.09598359 -0.41877517 0.66098154 0.17736651 0.4944639 -0.67279387 0.10245657
an 0.064852685 -0.6686703 1.1370164 0.42289788 1.7461512 -0.3037171 0.27595642 -0.73169017 0.8694701 2.8093138 1.5065118 0.15293525 0.22492833 0.21122256 0.48735496 0.17825915 -0.4263515 -0.6078622 1.4265914 0.30028117 -0.10536147 0.30314252 -0.3590002 0.7923282 0.7335819 0.19582607 -0.6854912 0.5349209 1.7165109 1.0755221 -0.6203341 -0.39476377 0.4066239 1.4748472 0.111945555 1.1094723 0.6448506 0.0018154294 0.4310898 0.26651248 -0.052436937 -0.20070677 0.3662031 -0.26570165 -0.07606746 1.2939391 -0.45767483 0.10063352 -0.08261239 0.33081067 0.2307459 -0.05165398 -0.27199212 -0.649729 -0.9111434 -0.028174184 0.6171702 0.14479941 -0.26281765 -0.023296688 -0.5219051 -0.20170723 -0.1640998 -1.9029692 0.47428188 2.4731574 -1.1195302 0.48857328 0.14395729 -0.08239976 -1.3000559 -0.13319439 -0.4554979 -0.4511765 1.7332591 -1.5362247 0.7944188 0.3165631 2.0802562 0.8111091 0.06534118 -0.6227803 0.7549437 2.0384126 -1.2489463 -0.04172915 1.6929281 0.19759323 -0.37748098 -0.09778304 -0.12286994 -0.0028166198 0.7695579 1.1075059 0.9320812 -0.36342812 0.47811493 -0.9725858 0.47031888 0.17178567
see -0.30178457 -0.91088974 -0.29140648 -0.31397635 -0.03886306 0.9991888 -0.3578405 0.23529966 -0.26916778 -0.28355047 0.2579085 0.23411484 -0.56077516 -0.8846187 -0.32662767 -0.116033055 0.7201788 -0.42943352 -0.34966066 -0.5983928 0.31860507 0.14618434 0.14912793 -0.70975184 -0.77456766 0.56178117 0.8772428 -0.5569022 -0.9667729 0.07841378 -0.25035486 -0.17962466 -0.39525136 -0.12464018 0.30067345 -0.16881393 -0.45801863 0.62352854 -0.2311434 0.61271936 -0.68504673 -0.4055015 0.007456868 0.25115952 -0.008155424 0.7412496 -0.3322369 0.008982255 -0.5340539 -0.05136882 0.17256638 -0.15856385 0.11513796 0.035708927 -0.5931661 0.490588 0.40494552 0.14560002 0.56349504 0.050504815 -0.046473224 0.07376916 -0.67686623 0.33050007 -0.26965994 1.3096337 0.3990095 -0.07115944 0.17146493 -0.026532752 0.4193802 0.15435189 0.36511585 -0.17469634 0.06351663 0.9138222 0.17252903 -0.10686345 0.33294082 -0.2530691 -0.10529227 -0.4448431 -1.2757384 -0.44528535 0.42812252 -0.115789145 -0.26147813 0.9286015 -0.34576938 0.14053239 -0.44881952 -0.1929311 -0.72858447 -0.44595 1.5018455 0.50723815 -0.3572379 0.6855932 0.10911171 -1.0585091
really -0.6908696 0.3056822 0.52444243 -0.7363601 0.03042932 0.4945501 0.12722005 0.7844295 -1.1115386 -0.11074362 -0.53433144 0.26233983 0.016397037 -0.50820285 0.2491804 0.040712733 0.5452489 -0.52090937 -1.1692003 0.38506937 -0.4995037 0.0916992 0.20611633 0.8199397 0.075746655 0.33857912 0.5930246 0.57111895 -0.5479403 0.118030116 0.39377317 -0.34608272 0.1845402 0.14270596 -0.2312209 -0.6500137 0.12819171 -0.8885374 -0.32943946 0.19315149 -0.14546765 -0.57035846 0.2476815 -0.401856 -0.44311008 -0.047722984 -0.2833457 -0.23478979 -0.5393864 -0.40490836 0.3630439 -0.4172204 0.23849301 -0.29793215 0.37986615 0.5008714 -0.14655751 -0.6817279 0.2766143 0.09326438 -1.0928376 0.17860878 -0.0035956479 0.42474416 0.5619789 1.0907103 -0.12075447 -0.33903977 -0.41280144 0.41451225 0.2628999 -0.12999915 -1.1090661 -0.084490225 -0.1584477 0.09475637 0.15410168 1.0519717 0.622533 -1.3948008 -0.5164414 0.20816399 0.25703537 1.2743639 -0.1566748 -0.008488867 -0.21640103 0.38779262 0.31519172 0.18578582 0.13630073 -0.03414361 0.9324723 0.7208667 0.32215214 -0.16023071 -1.6675271 -0.39083058 -0.7883617 -0.45259753
something -1.2727841 -0.25230703 -0.9139266 -1.1800269 -0.8185665 -0.4971025 -0.48144978 -0.16563809 -0.4051723 -0.34015572 0.30017123 -0.5700402 -0.20461334 -0.08100102 0.98850965 -0.4739326 0.438795 0.018045768 -0.086211435 -1.4051456 -0.95974344 -0.867534 0.34933078 0.1455543 -0.16015434 0.1308099 -0.31768832 1.090762 0.3148198 -0.64089674 -0.50911736 -0.0688471 0.71951073 -0.19930165 -1.1153749 -0.31503776 0.15932237 -0.32388428 0.18474407 -1.056616 -0.3913774 0.14983048 0.052887157 -0.65728796 -0.31744403 0.25228006 0.052571293 -0.55846936 1.1713431 0.035446938 0.73813546 -0.2642846 -0.57506925 -0.13644896 0.12857357 -0.16444333 0.06548201 -0.19444767 -0.8319018 -0.41284755 -0.71770024 -0.62842256 0.23821776 -0.6424657 -0.36086628 -0.9886795 0.7957309 0.11225034 -0.68713105 0.09459105 0.06371163 0.44378474 0.713835 -0.14626373 0.24515864 -0.0013289395 0.22233896 0.49637094 0.80670625 0.22808275 -0.09036968 0.32017636 -0.12350366 0.49726814 1.0861702 -0.5732237 0.75025517 0.39164403 0.29878598 -0.20665324 -0.1116458 0.07750483 -0.63260514 -0.0083933575 0.31738314 0.016682241 0.63906175 -0.1881968 0.096265174 -0.6296656
